{"learner":{"attributes":{"best_iteration":"532","best_score":"26548644.74458651","scikit_learn":"{\"_estimator_type\": \"regressor\"}"},"feature_names":["week_num","year","temp","tmin","tmax","rhum","prcp","wspd","pres","holiday","pre_tet_gravity","post_tet_gravity","load_lag_1","load_lag_2","load_lag_3"],"feature_types":["int","int","float","float","float","float","float","float","float","float","float","float","float","float","float"],"gradient_booster":{"model":{"cats":{"enc":[],"feature_segments":[],"sorted_idx":[]},"gbtree_model_param":{"num_parallel_tree":"1","num_trees":"583"},"iteration_indptr":[0,1,2,3,4,5,6,7,8,9,10,11,12,13,14,15,16,17,18,19,20,21,22,23,24,25,26,27,28,29,30,31,32,33,34,35,36,37,38,39,40,41,42,43,44,45,46,47,48,49,50,51,52,53,54,55,56,57,58,59,60,61,62,63,64,65,66,67,68,69,70,71,72,73,74,75,76,77,78,79,80,81,82,83,84,85,86,87,88,89,90,91,92,93,94,95,96,97,98,99,100,101,102,103,104,105,106,107,108,109,110,111,112,113,114,115,116,117,118,119,120,121,122,123,124,125,126,127,128,129,130,131,132,133,134,135,136,137,138,139,140,141,142,143,144,145,146,147,148,149,150,151,152,153,154,155,156,157,158,159,160,161,162,163,164,165,166,167,168,169,170,171,172,173,174,175,176,177,178,179,180,181,182,183,184,185,186,187,188,189,190,191,192,193,194,195,196,197,198,199,200,201,202,203,204,205,206,207,208,209,210,211,212,213,214,215,216,217,218,219,220,221,222,223,224,225,226,227,228,229,230,231,232,233,234,235,236,237,238,239,240,241,242,243,244,245,246,247,248,249,250,251,252,253,254,255,256,257,258,259,260,261,262,263,264,265,266,267,268,269,270,271,272,273,274,275,276,277,278,279,280,281,282,283,284,285,286,287,288,289,290,291,292,293,294,295,296,297,298,299,300,301,302,303,304,305,306,307,308,309,310,311,312,313,314,315,316,317,318,319,320,321,322,323,324,325,326,327,328,329,330,331,332,333,334,335,336,337,338,339,340,341,342,343,344,345,346,347,348,349,350,351,352,353,354,355,356,357,358,359,360,361,362,363,364,365,366,367,368,369,370,371,372,373,374,375,376,377,378,379,380,381,382,383,384,385,386,387,388,389,390,391,392,393,394,395,396,397,398,399,400,401,402,403,404,405,406,407,408,409,410,411,412,413,414,415,416,417,418,419,420,421,422,423,424,425,426,427,428,429,430,431,432,433,434,435,436,437,438,439,440,441,442,443,444,445,446,447,448,449,450,451,452,453,454,455,456,457,458,459,460,461,462,463,464,465,466,467,468,469,470,471,472,473,474,475,476,477,478,479,480,481,482,483,484,485,486,487,488,489,490,491,492,493,494,495,496,497,498,499,500,501,502,503,504,505,506,507,508,509,510,511,512,513,514,515,516,517,518,519,520,521,522,523,524,525,526,527,528,529,530,531,532,533,534,535,536,537,538,539,540,541,542,543,544,545,546,547,548,549,550,551,552,553,554,555,556,557,558,559,560,561,562,563,564,565,566,567,568,569,570,571,572,573,574,575,576,577,578,579,580,581,582,583],"tree_info":[0,0,0,0,0,0,0,0,0,0,0,0,0,0,0,0,0,0,0,0,0,0,0,0,0,0,0,0,0,0,0,0,0,0,0,0,0,0,0,0,0,0,0,0,0,0,0,0,0,0,0,0,0,0,0,0,0,0,0,0,0,0,0,0,0,0,0,0,0,0,0,0,0,0,0,0,0,0,0,0,0,0,0,0,0,0,0,0,0,0,0,0,0,0,0,0,0,0,0,0,0,0,0,0,0,0,0,0,0,0,0,0,0,0,0,0,0,0,0,0,0,0,0,0,0,0,0,0,0,0,0,0,0,0,0,0,0,0,0,0,0,0,0,0,0,0,0,0,0,0,0,0,0,0,0,0,0,0,0,0,0,0,0,0,0,0,0,0,0,0,0,0,0,0,0,0,0,0,0,0,0,0,0,0,0,0,0,0,0,0,0,0,0,0,0,0,0,0,0,0,0,0,0,0,0,0,0,0,0,0,0,0,0,0,0,0,0,0,0,0,0,0,0,0,0,0,0,0,0,0,0,0,0,0,0,0,0,0,0,0,0,0,0,0,0,0,0,0,0,0,0,0,0,0,0,0,0,0,0,0,0,0,0,0,0,0,0,0,0,0,0,0,0,0,0,0,0,0,0,0,0,0,0,0,0,0,0,0,0,0,0,0,0,0,0,0,0,0,0,0,0,0,0,0,0,0,0,0,0,0,0,0,0,0,0,0,0,0,0,0,0,0,0,0,0,0,0,0,0,0,0,0,0,0,0,0,0,0,0,0,0,0,0,0,0,0,0,0,0,0,0,0,0,0,0,0,0,0,0,0,0,0,0,0,0,0,0,0,0,0,0,0,0,0,0,0,0,0,0,0,0,0,0,0,0,0,0,0,0,0,0,0,0,0,0,0,0,0,0,0,0,0,0,0,0,0,0,0,0,0,0,0,0,0,0,0,0,0,0,0,0,0,0,0,0,0,0,0,0,0,0,0,0,0,0,0,0,0,0,0,0,0,0,0,0,0,0,0,0,0,0,0,0,0,0,0,0,0,0,0,0,0,0,0,0,0,0,0,0,0,0,0,0,0,0,0,0,0,0,0,0,0,0,0,0,0,0,0,0,0,0,0,0,0,0,0,0,0,0,0,0,0,0,0,0,0,0,0,0,0,0,0,0,0,0,0,0,0,0,0,0,0,0,0,0,0,0,0,0,0,0,0,0,0,0,0,0,0,0,0,0,0,0,0,0,0,0,0,0,0,0,0,0,0,0,0,0,0,0,0,0,0,0,0,0,0,0,0,0,0,0,0,0,0,0,0,0,0,0,0,0,0,0],"trees":[{"base_weights":[-4.6950875E6,1.2888955E7,-7.6714275E6,-2.5095904E7,7.089155E7,-2.7642502E6,-1.5568823E7,4.3736316E7,1.3019315E8,-6.7395975E6,-1.9370331E6,-2.0078208E6,6.2541092E7,1.3717345E6,3.2024765E6,-3.994815E5,7.9180975E5,-7.3558356E5,2.2564831E5,1.6016252E6,6.6969525E5],"categories":[],"categories_nodes":[],"categories_segments":[],"categories_sizes":[],"default_left":[0,0,0,0,0,0,0,0,0,0,0,0,0,0,0,0,0,0,0,0,0],"id":0,"left_children":[1,3,-1,5,7,-1,9,11,13,15,-1,17,19,-1,-1,-1,-1,-1,-1,-1,-1],"loss_changes":[7.5110766E17,2.397269E17,0E0,6.8974486E16,6.3550827E16,0E0,4.3842455E16,2.6792023E16,1.2988617E16,3.574059E16,0E0,5.0361536E15,8.5308616E15,0E0,0E0,0E0,0E0,0E0,0E0,0E0,0E0],"parents":[2147483647,0,0,1,1,3,3,4,4,6,6,7,7,8,8,9,9,11,11,12,12],"right_children":[2,4,-1,6,8,-1,10,12,14,16,-1,18,20,-1,-1,-1,-1,-1,-1,-1,-1],"split_conditions":[5E-1,1.1021192E9,-7.6714275E6,8.7802374E8,3.7E1,-2.7642502E6,2E-1,2.82E1,3.04E1,1.0945856E9,-1.9370331E6,2.69E1,1.24E1,1.3717345E6,3.2024765E6,-3.994815E5,7.9180975E5,-7.3558356E5,2.2564831E5,1.6016252E6,6.6969525E5],"split_indices":[9,12,0,12,4,0,9,2,2,14,0,2,7,0,0,0,0,0,0,0,0],"split_type":[0,0,0,0,0,0,0,0,0,0,0,0,0,0,0,0,0,0,0,0,0],"sum_hessian":[1.11E2,1.07E2,4E0,6.5E1,4.2E1,4E0,6.1E1,3E1,1.2E1,5.6E1,5E0,9E0,2.1E1,5E0,7E0,4.4E1,1.2E1,2E0,7E0,1.2E1,9E0],"tree_param":{"num_deleted":"0","num_feature":"15","num_nodes":"21","size_leaf_vector":"1"}},{"base_weights":[-6.8857715E6,7.5301145E6,-7.5995465E6,-2.7905392E7,6.492456E7,-1.3052039E8,-1.7178802E7,4.5742365E6,7.986919E7,-3.175382E6,-9.86973E5,-6.6416605E6,-8.484001E7,-3.7733034E5,1.3966811E7,4.5764304E7,9.804391E7,-5.536437E5,3.2545628E5,-2.1703965E6,-6.8060444E5,1.3066432E5,3.5817406E5,1.1179249E6,3.6747878E5,2.1702512E6,5.1013543E4],"categories":[],"categories_nodes":[],"categories_segments":[],"categories_sizes":[],"default_left":[0,0,0,0,0,0,0,0,0,0,0,0,0,0,0,0,0,0,0,0,0,0,0,0,0,0,0],"id":1,"left_children":[1,3,-1,5,7,9,11,13,15,-1,-1,17,19,-1,21,23,25,-1,-1,-1,-1,-1,-1,-1,-1,-1,-1],"loss_changes":[5.78355E17,2.1332707E17,0E0,6.930391E16,3.5711193E16,5.9229403E15,4.221386E16,2.2450265E15,1.5348186E16,0E0,0E0,2.6003493E16,5.932385E15,0E0,8.811555E13,2.5806955E15,1.971694E16,0E0,0E0,0E0,0E0,0E0,0E0,0E0,0E0,0E0,0E0],"parents":[2147483647,0,0,1,1,3,3,4,4,5,5,6,6,7,7,8,8,11,11,12,12,14,14,15,15,16,16],"right_children":[2,4,-1,6,8,10,12,14,16,-1,-1,18,20,-1,22,24,26,-1,-1,-1,-1,-1,-1,-1,-1,-1,-1],"split_conditions":[5E-1,1.1021192E9,-7.5995465E6,8.8508934E8,2.84E1,2.79E1,2E-1,2.78E1,1.1331826E9,-3.175382E6,-9.86973E5,2.024E3,2.81E1,-3.7733034E5,1.0906962E9,5.25E1,2E-1,-5.536437E5,3.2545628E5,-2.1703965E6,-6.8060444E5,1.3066432E5,3.5817406E5,1.1179249E6,3.6747878E5,2.1702512E6,5.1013543E4],"split_indices":[9,12,0,12,2,2,9,2,12,0,0,1,2,0,13,6,9,0,0,0,0,0,0,0,0,0,0],"split_type":[0,0,0,0,0,0,0,0,0,0,0,0,0,0,0,0,0,0,0,0,0,0,0,0,0,0,0],"sum_hessian":[1.06E2,1.03E2,3E0,6.4E1,3.9E1,5E0,5.9E1,8E0,3.1E1,3E0,2E0,5.2E1,7E0,2E0,6E0,1.2E1,1.9E1,2.7E1,2.5E1,4E0,3E0,3E0,3E0,8E0,4E0,1.7E1,2E0],"tree_param":{"num_deleted":"0","num_feature":"15","num_nodes":"27","size_leaf_vector":"1"}},{"base_weights":[1.6684952E6,1.6689657E7,-7.485553E6,-2.846974E7,8.236951E7,-1.28603736E8,-1.70284E7,4.8346892E7,1.4453122E8,-3.1277515E6,-9.7381375E5,-5.5951065E6,-8.349961E7,2.999104E6,6.9669576E7,3.0704552E6,1.2077585E6,-4.1147788E5,4.5858762E5,-2.1356708E6,-6.703958E5,-7.2074494E5,3.4525694E5,9.815207E5,1.741968E6],"categories":[],"categories_nodes":[],"categories_segments":[],"categories_sizes":[],"default_left":[0,0,0,0,0,0,0,0,0,0,0,0,0,0,0,0,0,0,0,0,0,0,0,0,0],"id":2,"left_children":[1,3,-1,5,7,9,11,13,15,-1,-1,17,19,21,23,-1,-1,-1,-1,-1,-1,-1,-1,-1,-1],"loss_changes":[5.879028E17,2.989513E17,0E0,6.6550115E16,7.972342E16,5.707127E15,4.1331978E16,2.6865278E16,1.3211663E15,0E0,0E0,2.0980335E16,5.7304484E15,6.1901506E15,2.5450602E15,0E0,0E0,0E0,0E0,0E0,0E0,0E0,0E0,0E0,0E0],"parents":[2147483647,0,0,1,1,3,3,4,4,5,5,6,6,7,7,8,8,11,11,12,12,13,13,14,14],"right_children":[2,4,-1,6,8,10,12,14,16,-1,-1,18,20,22,24,-1,-1,-1,-1,-1,-1,-1,-1,-1,-1],"split_conditions":[5E-1,1.1061281E9,-7.485553E6,8.8508934E8,3E1,2.79E1,2E-1,2.84E1,2E-1,-3.1277515E6,-9.7381375E5,1.06536026E9,2.81E1,2.69E1,1.1487406E9,3.0704552E6,1.2077585E6,-4.1147788E5,4.5858762E5,-2.1356708E6,-6.703958E5,-7.2074494E5,3.4525694E5,9.815207E5,1.741968E6],"split_indices":[9,12,0,12,2,2,9,2,9,0,0,12,2,2,12,0,0,0,0,0,0,0,0,0,0],"split_type":[0,0,0,0,0,0,0,0,0,0,0,0,0,0,0,0,0,0,0,0,0,0,0,0,0],"sum_hessian":[1.02E2,9.9E1,3E0,5.9E1,4E1,5E0,5.4E1,2.7E1,1.3E1,3E0,2E0,4.7E1,7E0,9E0,1.8E1,1.1E1,2E0,3.1E1,1.6E1,4E0,3E0,2E0,7E0,1E1,8E0],"tree_param":{"num_deleted":"0","num_feature":"15","num_nodes":"25","size_leaf_vector":"1"}},{"base_weights":[7.328598E5,1.2315391E7,-6.417312E6,-2.3679378E7,6.978803E7,-1.7849562E7,-2.9197092E6,1.9835542E7,1.01686376E8,-2.7065992E7,2.6647904E7,-7.111347E5,2.8981872E7,7.391279E7,1.4593506E8,4.876819E5,-6.0876675E5,1.1075485E6,-4.9297816E5,1.2773075E6,3.2038222E5,1.03729894E6,1.8997894E6,3.3345115E6,9.755767E5],"categories":[],"categories_nodes":[],"categories_segments":[],"categories_sizes":[],"default_left":[0,0,0,0,0,0,0,0,0,0,0,0,0,0,0,0,0,0,0,0,0,0,0,0,0],"id":3,"left_children":[1,3,-1,5,7,9,-1,11,13,15,17,-1,19,21,23,-1,-1,-1,-1,-1,-1,-1,-1,-1,-1],"loss_changes":[4.2859293E17,2.3127987E17,0E0,4.659274E16,6.6499254E16,2.8198475E16,0E0,1.014995E16,2.1166097E16,1.0458632E16,1.9049786E16,0E0,6.2119186E15,3.4378894E15,1.0046684E16,0E0,0E0,0E0,0E0,0E0,0E0,0E0,0E0,0E0,0E0],"parents":[2147483647,0,0,1,1,3,3,4,4,5,5,7,7,8,8,9,9,10,10,12,12,13,13,14,14],"right_children":[2,4,-1,6,8,10,-1,12,14,16,18,-1,20,22,24,-1,-1,-1,-1,-1,-1,-1,-1,-1,-1],"split_conditions":[5E-1,1.1014861E9,-6.417312E6,5E-1,2.92E1,1.1061281E9,-2.9197092E6,2.69E1,3.05E1,8.7802374E8,1.23E1,-7.111347E5,2.3E1,1.1487784E9,2E-1,4.876819E5,-6.0876675E5,1.1075485E6,-4.9297816E5,1.2773075E6,3.2038222E5,1.03729894E6,1.8997894E6,3.3345115E6,9.755767E5],"split_indices":[9,12,0,11,2,14,0,2,2,14,7,0,0,12,9,0,0,0,0,0,0,0,0,0,0],"split_type":[0,0,0,0,0,0,0,0,0,0,0,0,0,0,0,0,0,0,0,0,0,0,0,0,0],"sum_hessian":[1.13E2,1.1E2,3E0,6.8E1,4.2E1,6.6E1,2E0,1.7E1,2.5E1,5.5E1,1.1E1,2E0,1.5E1,1.7E1,8E0,3E0,5.2E1,7E0,4E0,3E0,1.2E1,1E1,7E0,6E0,2E0],"tree_param":{"num_deleted":"0","num_feature":"15","num_nodes":"25","size_leaf_vector":"1"}},{"base_weights":[7.002904E6,-3.7818772E7,7.756593E7,-4.507E6,-2.3259444E7,5.365125E7,1.2181853E8,-8.190546E7,-1.2747038E7,6.898428E7,2.7114412E7,1.3987958E6,1.3432536E8,-2.0091936E7,-1.3970058E8,-2.6242278E7,1.2279921E7,2.722561E7,8.195341E7,3.4431064E7,4.088352E4,2.891929E6,1.1747396E6,1.5000064E5,-7.1525856E5,-3.5657828E6,-1.0909034E6,-3.595769E5,-1.0996556E6,6.694753E5,-6.977947E5,1.0163667E6,-2.661312E5,1.8069915E6,4.2101844E5,3.4014488E5,8.6424806E5],"categories":[],"categories_nodes":[],"categories_segments":[],"categories_sizes":[],"default_left":[0,0,0,0,0,0,0,0,0,0,0,0,0,0,0,0,0,0,0,0,0,0,0,0,0,0,0,0,0,0,0,0,0,0,0,0,0],"id":4,"left_children":[1,3,5,-1,7,9,11,13,15,17,19,-1,21,23,25,27,29,31,33,35,-1,-1,-1,-1,-1,-1,-1,-1,-1,-1,-1,-1,-1,-1,-1,-1,-1],"loss_changes":[3.6665002E17,1.886118E17,4.1087203E16,0E0,4.026216E16,1.0743131E16,3.3789367E14,3.2918343E16,1.9911451E16,8.0586643E15,2.31421E15,0E0,4.6952582E13,2.8625842E15,6.7053115E15,8.0362875E15,2.2161726E16,6.4138035E15,5.2569197E15,7.9512085E14,0E0,0E0,0E0,0E0,0E0,0E0,0E0,0E0,0E0,0E0,0E0,0E0,0E0,0E0,0E0,0E0,0E0],"parents":[2147483647,0,0,1,1,2,2,4,4,5,5,6,6,7,7,8,8,9,9,10,10,12,12,13,13,14,14,15,15,16,16,17,17,18,18,19,19],"right_children":[2,4,6,-1,8,10,12,14,16,18,20,-1,22,24,26,28,30,32,34,36,-1,-1,-1,-1,-1,-1,-1,-1,-1,-1,-1,-1,-1,-1,-1,-1,-1],"split_conditions":[1.1061281E9,8.837024E8,3.7E1,-4.507E6,7E0,8.01E1,1.6E1,6.99E1,2.024E3,6.91E1,3.4E1,1.3987958E6,4.88E1,6.39E1,7.07E1,9.07E1,1.28E1,1.4E1,5.71E1,3.4E1,4.088352E4,2.891929E6,1.1747396E6,1.5000064E5,-7.1525856E5,-3.5657828E6,-1.0909034E6,-3.595769E5,-1.0996556E6,6.694753E5,-6.977947E5,1.0163667E6,-2.661312E5,1.8069915E6,4.2101844E5,3.4014488E5,8.6424806E5],"split_indices":[12,12,4,0,0,5,0,5,1,5,0,0,6,5,5,5,7,0,6,4,0,0,0,0,0,0,0,0,0,0,0,0,0,0,0,0,0],"split_type":[0,0,0,0,0,0,0,0,0,0,0,0,0,0,0,0,0,0,0,0,0,0,0,0,0,0,0,0,0,0,0,0,0,0,0,0,0],"sum_hessian":[1.14E2,7E1,4.4E1,4E0,6.6E1,3E1,1.4E1,9E0,5.7E1,1.8E1,1.2E1,4E0,1E1,5E0,4E0,3.7E1,2E1,5E0,1.3E1,9E0,3E0,8E0,2E0,2E0,3E0,2E0,2E0,3E1,7E0,1.4E1,6E0,3E0,2E0,1.1E1,2E0,4E0,5E0],"tree_param":{"num_deleted":"0","num_feature":"15","num_nodes":"37","size_leaf_vector":"1"}},{"base_weights":[1.0539617E7,-2.9897614E7,7.5903576E7,-1.9469595E8,-1.7522406E7,4.841574E7,1.14445576E8,-5.089707E6,-1.4001579E6,-9.069299E6,-8.08437E7,1.2656864E7,5.9732656E7,1.3074216E8,-2.1236138E5,-2.1086622E7,3.7848812E7,-2.0732715E6,-6.421584E5,3.4404862E5,-1.3064532E4,3.3980336E7,1.6010946E6,2.9579365E6,1.5500314E6,-7.6934344E5,-2.7880575E5,1.0327139E6,1.0925312E5,8.524784E5,1.639616E5],"categories":[],"categories_nodes":[],"categories_segments":[],"categories_sizes":[],"default_left":[0,0,0,0,0,0,0,0,0,0,0,0,0,0,0,0,0,0,0,0,0,0,0,0,0,0,0,0,0,0,0],"id":5,"left_children":[1,3,5,7,9,11,13,-1,-1,15,17,19,21,23,-1,25,27,-1,-1,-1,-1,29,-1,-1,-1,-1,-1,-1,-1,-1,-1],"loss_changes":[3.1151645E17,1.4546565E17,4.2133646E16,1.945914E16,3.619986E16,1.0575021E16,3.8074215E16,0E0,0E0,3.5755573E16,5.5687343E15,4.9525254E14,8.269865E15,3.1509598E15,0E0,5.6741157E15,5.522486E15,0E0,0E0,0E0,0E0,2.101928E15,0E0,0E0,0E0,0E0,0E0,0E0,0E0,0E0,0E0],"parents":[2147483647,0,0,1,1,2,2,3,3,4,4,5,5,6,6,9,9,10,10,11,11,12,12,13,13,15,15,16,16,21,21],"right_children":[2,4,6,8,10,12,14,-1,-1,16,18,20,22,24,-1,26,28,-1,-1,-1,-1,30,-1,-1,-1,-1,-1,-1,-1,-1,-1],"split_conditions":[1.1021192E9,8.837024E8,3E1,2.74E1,2E-1,2.84E1,3E-1,-5.089707E6,-1.4001579E6,1.1152326E9,2.81E1,3E1,1.131649E9,1.28E1,-2.1236138E5,1.02147424E9,1.23E1,-2.0732715E6,-6.421584E5,3.4404862E5,-1.3064532E4,1.1063401E9,1.6010946E6,2.9579365E6,1.5500314E6,-7.6934344E5,-2.7880575E5,1.0327139E6,1.0925312E5,8.524784E5,1.639616E5],"split_indices":[12,12,2,2,9,2,9,0,0,14,2,0,12,7,0,12,7,0,0,0,0,14,0,0,0,0,0,0,0,0,0],"split_type":[0,0,0,0,0,0,0,0,0,0,0,0,0,0,0,0,0,0,0,0,0,0,0,0,0,0,0,0,0,0,0],"sum_hessian":[1.16E2,7.2E1,4.4E1,4E0,6.8E1,2.7E1,1.7E1,2E0,2E0,6.1E1,7E0,7E0,2E1,1.5E1,2E0,4.9E1,1.2E1,4E0,3E0,5E0,2E0,1E1,1E1,1E1,5E0,1.3E1,3.6E1,8E0,4E0,7E0,3E0],"tree_param":{"num_deleted":"0","num_feature":"15","num_nodes":"31","size_leaf_vector":"1"}},{"base_weights":[-4.6035545E6,-1.6031802E8,2.3309598E7,-2.3363117E8,-6.919177E7,-2.884327E5,8.9395624E7,-6.5091655E6,-1.9015568E6,-2.2879936E7,-3.0837755E6,-2.300114E7,3.1518972E7,3.070557E5,9.879452E7,-2.842496E5,-1.0582554E6,-3.5727084E7,-8.573906E6,-1.2280719E7,6.1401028E7,1.06886184E8,2.3837183E5,-1.6119253E5,1.5171755E5,-9.152261E5,-3.8219762E5,1.3629897E5,-6.8865325E5,-4.8013144E5,4.020819E5,9.3450825E5,2.3840792E6,5.089502E5,2.2904235E6],"categories":[],"categories_nodes":[],"categories_segments":[],"categories_sizes":[],"default_left":[0,0,0,0,0,0,0,0,0,0,0,0,0,0,0,0,0,0,0,0,0,0,0,0,0,0,0,0,0,0,0,0,0,0,0],"id":6,"left_children":[1,3,5,7,9,11,13,-1,-1,15,-1,17,19,-1,21,23,-1,25,27,29,31,33,-1,-1,-1,-1,-1,-1,-1,-1,-1,-1,-1,-1,-1],"loss_changes":[4.861964E17,9.740745E16,1.481783E17,8.356264E16,3.189947E16,5.2017663E16,1.5881243E16,0E0,0E0,4.7352465E15,0E0,7.4048865E15,4.0018796E16,0E0,1.4191431E16,3.6710535E14,0E0,2.793801E15,8.591328E15,5.419246E15,9.699432E15,9.52141E15,0E0,0E0,0E0,0E0,0E0,0E0,0E0,0E0,0E0,0E0,0E0,0E0,0E0],"parents":[2147483647,0,0,1,1,2,2,3,3,4,4,5,5,6,6,9,9,11,11,12,12,14,14,15,15,17,17,18,18,19,19,20,20,21,21],"right_children":[2,4,6,8,10,12,14,-1,-1,16,-1,18,20,-1,22,24,-1,26,28,30,32,34,-1,-1,-1,-1,-1,-1,-1,-1,-1,-1,-1,-1,-1],"split_conditions":[8E0,9.688512E8,1.1372191E9,6.69E1,6E0,2.89E1,2.86E1,-6.5091655E6,-1.9015568E6,1E-1,-3.0837755E6,2.024E3,2.024E3,3.070557E5,1.2382019E9,4E0,-1.0582554E6,2.82E1,1.28E1,4.26E1,1.1819674E9,1.0072E3,2.3837183E5,-1.6119253E5,1.5171755E5,-9.152261E5,-3.8219762E5,1.3629897E5,-6.8865325E5,-4.8013144E5,4.020819E5,9.3450825E5,2.3840792E6,5.089502E5,2.2904235E6],"split_indices":[0,12,12,5,0,2,2,0,0,6,0,1,1,0,13,0,0,2,7,6,13,8,0,0,0,0,0,0,0,0,0,0,0,0,0],"split_type":[0,0,0,0,0,0,0,0,0,0,0,0,0,0,0,0,0,0,0,0,0,0,0,0,0,0,0,0,0,0,0,0,0,0,0],"sum_hessian":[1.1E2,1.6E1,9.4E1,8E0,8E0,7E1,2.4E1,4E0,4E0,6E0,2E0,4.1E1,2.9E1,3E0,2.1E1,4E0,2E0,2.1E1,2E1,1.2E1,1.7E1,1.9E1,2E0,2E0,2E0,1.2E1,9E0,1.3E1,7E0,9E0,3E0,1.5E1,2E0,2E0,1.7E1],"tree_param":{"num_deleted":"0","num_feature":"15","num_nodes":"35","size_leaf_vector":"1"}},{"base_weights":[-5.7602505E6,7.422501E6,-6.809607E6,-1.9674752E7,7.9739336E7,-2.4615312E6,-1.2115826E7,8.71107E7,-2.1451178E5,-6.614893E6,-1.6681031E6,1.5310298E7,1.989388E6,-3.8370347E5,2.7890728E5,5.997568E4,4.5036756E5],"categories":[],"categories_nodes":[],"categories_segments":[],"categories_sizes":[],"default_left":[0,0,0,0,0,0,0,0,0,0,0,0,0,0,0,0,0],"id":7,"left_children":[1,3,-1,5,7,-1,9,11,-1,13,-1,15,-1,-1,-1,-1,-1],"loss_changes":[4.6584308E17,2.014468E17,0E0,5.712932E16,1.9606113E16,0E0,2.729149E16,2.1548418E16,0E0,1.7583572E16,0E0,3.7618437E14,0E0,0E0,0E0,0E0,0E0],"parents":[2147483647,0,0,1,1,3,3,4,4,6,6,7,7,9,9,11,11],"right_children":[2,4,-1,6,8,-1,10,12,-1,14,-1,16,-1,-1,-1,-1,-1],"split_conditions":[5E-1,1.1324718E9,-6.809607E6,8.7802374E8,3E-1,-2.4615312E6,2E-1,2.86E1,-2.1451178E5,1.06536026E9,-1.6681031E6,2.78E1,1.989388E6,-3.8370347E5,2.7890728E5,5.997568E4,4.5036756E5],"split_indices":[9,12,0,12,9,0,9,2,0,12,0,2,0,0,0,0,0],"split_type":[0,0,0,0,0,0,0,0,0,0,0,0,0,0,0,0,0],"sum_hessian":[1.04E2,1.01E2,3E0,7.4E1,2.7E1,4E0,7E1,2.5E1,2E0,6.6E1,4E0,4E0,2.1E1,4.1E1,2.5E1,2E0,2E0],"tree_param":{"num_deleted":"0","num_feature":"15","num_nodes":"17","size_leaf_vector":"1"}},{"base_weights":[1.2694422E6,1.733781E7,-6.9212235E6,-2.089383E7,6.556265E7,-1.4766851E7,-2.6885295E6,2.304387E7,9.511021E7,-2.6853196E7,2.2476642E7,-1.1858469E6,3.2814814E7,1.0364744E8,-2.1165142E5,-7.947021E5,-1.4267998E5,-3.1015466E5,8.6039206E5,-4.4155988E5,2.3173222E5,3.7981128E5,9.180204E5,1.5560109E6,3.041558E6],"categories":[],"categories_nodes":[],"categories_segments":[],"categories_sizes":[],"default_left":[0,0,0,0,0,0,0,0,0,0,0,0,0,0,0,0,0,0,0,0,0,0,0,0,0],"id":8,"left_children":[1,3,-1,5,7,9,-1,11,13,15,17,19,21,23,-1,-1,-1,-1,-1,-1,-1,-1,-1,-1,-1],"loss_changes":[6.31076E17,2.0049103E17,0E0,4.0447288E16,5.811194E16,2.7161697E16,0E0,5.0106044E15,2.6361925E16,1.1147472E16,1.2371812E16,2.1237176E15,1.8419182E15,2.0714473E16,0E0,0E0,0E0,0E0,0E0,0E0,0E0,0E0,0E0,0E0,0E0],"parents":[2147483647,0,0,1,1,3,3,4,4,5,5,7,7,8,8,9,9,10,10,11,11,12,12,13,13],"right_children":[2,4,-1,6,8,10,-1,12,14,16,18,20,22,24,-1,-1,-1,-1,-1,-1,-1,-1,-1,-1,-1],"split_conditions":[5E-1,1.1021192E9,-6.9212235E6,5E-1,2.92E1,1.1061281E9,-2.6885295E6,2.8E1,3E-1,3.5E1,3.4E1,1.34E1,1.1310552E9,3.05E1,-2.1165142E5,-7.947021E5,-1.4267998E5,-3.1015466E5,8.6039206E5,-4.4155988E5,2.3173222E5,3.7981128E5,9.180204E5,1.5560109E6,3.041558E6],"split_indices":[9,12,0,11,2,14,0,2,9,4,4,6,12,2,0,0,0,0,0,0,0,0,0,0,0],"split_type":[0,0,0,0,0,0,0,0,0,0,0,0,0,0,0,0,0,0,0,0,0,0,0,0,0],"sum_hessian":[1.11E2,1.07E2,4E0,6E1,4.7E1,5.8E1,2E0,2E1,2.7E1,4.4E1,1.4E1,6E0,1.4E1,2.5E1,2E0,2.6E1,1.8E1,5E0,9E0,2E0,4E0,8E0,6E0,1.8E1,7E0],"tree_param":{"num_deleted":"0","num_feature":"15","num_nodes":"25","size_leaf_vector":"1"}},{"base_weights":[-3.161491E6,1.206351E7,-6.8104845E6,-2.7112196E7,5.391772E7,-8.453545E7,-1.4839854E7,1.140433E7,9.9262744E7,-2.6183995E6,-1.1966925E7,-9.591721E6,-1.8422796E6,-8.961273E6,4.1002372E7,6.381532E5,1.10058776E8,-5.744589E5,1.7556138E5,-4.4898038E5,3.344472E5,-5.489154E5,1.7141797E5,-2.8417066E5,1.0693081E6,2.3539032E6,9.2542525E5],"categories":[],"categories_nodes":[],"categories_segments":[],"categories_sizes":[],"default_left":[0,0,0,0,0,0,0,0,0,0,0,0,0,0,0,0,0,0,0,0,0,0,0,0,0,0,0],"id":9,"left_children":[1,3,-1,5,7,9,11,13,15,-1,17,19,-1,21,23,-1,25,-1,-1,-1,-1,-1,-1,-1,-1,-1,-1],"loss_changes":[5.947879E17,1.8346499E17,0E0,3.9619136E16,1.029676E17,3.209386E16,1.8988169E16,1.7848112E16,1.5394657E16,0E0,1.9901495E15,1.6276817E16,0E0,6.068555E15,9.016809E15,0E0,5.270406E15,0E0,0E0,0E0,0E0,0E0,0E0,0E0,0E0,0E0,0E0],"parents":[2147483647,0,0,1,1,3,3,4,4,5,5,6,6,7,7,8,8,10,10,11,11,13,13,14,14,16,16],"right_children":[2,4,-1,6,8,10,12,14,16,-1,18,20,-1,22,24,-1,26,-1,-1,-1,-1,-1,-1,-1,-1,-1,-1],"split_conditions":[5E-1,2.89E1,-6.8104845E6,8E0,1.1094643E9,1.0365786E9,2E-1,2.024E3,2.91E1,-2.6183995E6,1.0581624E9,1.1021192E9,-1.8422796E6,2.21E1,9E0,6.381532E5,2E-1,-5.744589E5,1.7556138E5,-4.4898038E5,3.344472E5,-5.489154E5,1.7141797E5,-2.8417066E5,1.0693081E6,2.3539032E6,9.2542525E5],"split_indices":[9,2,0,0,13,13,9,1,2,0,14,14,0,6,0,0,9,0,0,0,0,0,0,0,0,0,0],"split_type":[0,0,0,0,0,0,0,0,0,0,0,0,0,0,0,0,0,0,0,0,0,0,0,0,0,0,0],"sum_hessian":[1.14E2,1.1E2,4E0,5.7E1,5.3E1,9E0,4.8E1,2.8E1,2.5E1,5E0,4E0,4.6E1,2E0,1.7E1,1.1E1,4E0,2.1E1,2E0,2E0,3.1E1,1.5E1,8E0,9E0,2E0,9E0,1.8E1,3E0],"tree_param":{"num_deleted":"0","num_feature":"15","num_nodes":"27","size_leaf_vector":"1"}},{"base_weights":[-5.702242E6,8.544052E6,-6.701516E6,-2.37358E7,4.0131972E7,-6.5091228E7,-1.0342205E7,-9.646394E6,6.4017856E7,-9.140754E7,-6.785611E5,-3.8505295E6,-1.5183849E6,-3.7699744E7,8.359237E6,-5.4416957E4,6.950264E7,-2.2586272E6,-5.0130603E5,-3.5244978E5,3.9260622E5,-9.184087E5,-3.5997888E5,5.2603925E5,-2.1555328E5,1.4884416E6,-2.2116778E5],"categories":[],"categories_nodes":[],"categories_segments":[],"categories_sizes":[],"default_left":[0,0,0,0,0,0,0,0,0,0,0,0,0,0,0,0,0,0,0,0,0,0,0,0,0,0,0],"id":10,"left_children":[1,3,-1,5,7,9,11,13,15,17,-1,19,-1,21,23,-1,25,-1,-1,-1,-1,-1,-1,-1,-1,-1,-1],"loss_changes":[5.6594526E17,1.1923236E17,0E0,3.1452885E16,7.0768563E16,8.380117E15,1.8864392E16,1.0417505E16,1.4831003E16,7.164916E15,0E0,1.3927778E16,0E0,4.691135E14,4.747259E15,0E0,1.5486638E16,0E0,0E0,0E0,0E0,0E0,0E0,0E0,0E0,0E0,0E0],"parents":[2147483647,0,0,1,1,3,3,4,4,5,5,6,6,7,7,8,8,9,9,11,11,13,13,14,14,16,16],"right_children":[2,4,-1,6,8,10,12,14,16,18,-1,20,-1,22,24,-1,26,-1,-1,-1,-1,-1,-1,-1,-1,-1,-1],"split_conditions":[5E-1,2.88E1,-6.701516E6,1.02147424E9,2.024E3,1.0107E3,2E-1,7.51E1,9E0,3.6E1,-6.785611E5,1.1021192E9,-1.5183849E6,1.5E1,2.3E1,-5.4416957E4,3E-1,-2.2586272E6,-5.0130603E5,-3.5244978E5,3.9260622E5,-9.184087E5,-3.5997888E5,5.2603925E5,-2.1555328E5,1.4884416E6,-2.2116778E5],"split_indices":[9,2,0,14,1,8,9,5,0,0,0,14,0,0,0,0,9,0,0,0,0,0,0,0,0,0,0],"split_type":[0,0,0,0,0,0,0,0,0,0,0,0,0,0,0,0,0,0,0,0,0,0,0,0,0,0,0],"sum_hessian":[1.19E2,1.15E2,4E0,5.7E1,5.8E1,1.3E1,4.4E1,1.9E1,3.9E1,6E0,7E0,4.1E1,3E0,7E0,1.2E1,3E0,3.6E1,4E0,2E0,2.6E1,1.5E1,4E0,3E0,6E0,6E0,3.4E1,2E0],"tree_param":{"num_deleted":"0","num_feature":"15","num_nodes":"27","size_leaf_vector":"1"}},{"base_weights":[-1.026057E6,1.1852738E7,-6.712364E6,-1.3382399E7,6.6552044E7,-6.9625095E6,-7.2001016E7,7.916521E7,1.7240256E7,-2.7144232E7,1.6698925E7,-1.9475772E6,-5.7245825E5,3.9114816E7,8.683841E7,4.5050494E5,1.8470398E4,-1.1245816E6,-2.7590188E5,-3.280982E5,6.1974156E5,1.0100121E6,2.1790975E5,8.099667E5,1.8462368E6],"categories":[],"categories_nodes":[],"categories_segments":[],"categories_sizes":[],"default_left":[0,0,0,0,0,0,0,0,0,0,0,0,0,0,0,0,0,0,0,0,0,0,0,0,0],"id":11,"left_children":[1,3,-1,5,7,9,11,13,15,17,19,-1,-1,21,23,-1,-1,-1,-1,-1,-1,-1,-1,-1,-1],"loss_changes":[4.6505634E17,1.4444645E17,0E0,2.6594094E16,1.916045E16,3.1970158E16,4.918635E15,4.593502E15,6.690681E14,1.3201587E16,1.5171116E16,0E0,0E0,1.3775678E15,1.5879525E15,0E0,0E0,0E0,0E0,0E0,0E0,0E0,0E0,0E0,0E0],"parents":[2147483647,0,0,1,1,3,3,4,4,5,5,6,6,7,7,8,8,9,9,10,10,13,13,14,14],"right_children":[2,4,-1,6,8,10,12,14,16,18,20,-1,-1,22,24,-1,-1,-1,-1,-1,-1,-1,-1,-1,-1],"split_conditions":[5E-1,1.1183821E9,-6.712364E6,2E-1,8.4E1,2.024E3,2.81E1,1.1331826E9,3.4E1,1.5E1,2.36E1,-1.9475772E6,-5.7245825E5,7.54E1,1.0072E3,4.5050494E5,1.8470398E4,-1.1245816E6,-2.7590188E5,-3.280982E5,6.1974156E5,1.0100121E6,2.1790975E5,8.099667E5,1.8462368E6],"split_indices":[9,12,0,9,5,1,2,12,0,0,3,0,0,5,8,0,0,0,0,0,0,0,0,0,0],"split_type":[0,0,0,0,0,0,0,0,0,0,0,0,0,0,0,0,0,0,0,0,0,0,0,0,0],"sum_hessian":[1.06E2,1.03E2,3E0,7.1E1,3.2E1,6.5E1,6E0,2.5E1,7E0,3.5E1,3E1,3E0,3E0,5E0,2E1,5E0,2E0,1E1,2.5E1,9E0,2.1E1,3E0,2E0,3E0,1.7E1],"tree_param":{"num_deleted":"0","num_feature":"15","num_nodes":"25","size_leaf_vector":"1"}},{"base_weights":[-4.9344275E6,7.0612825E6,-6.611678E6,-2.4343246E7,5.400759E7,-1.1317343E8,-1.5206781E7,5.661597E6,6.806048E7,-2.7496688E6,-8.6071206E5,-7.171002E6,-7.617265E7,-3.247539E5,1.2332295E7,7.342017E7,-2.3592703E5,-3.9499134E5,7.9095975E5,-1.8926266E6,-4.003456E5,9.0781945E4,3.531807E5,7.272778E5,1.7722206E6],"categories":[],"categories_nodes":[],"categories_segments":[],"categories_sizes":[],"default_left":[0,0,0,0,0,0,0,0,0,0,0,0,0,0,0,0,0,0,0,0,0,0,0,0,0],"id":12,"left_children":[1,3,-1,5,7,9,11,13,15,-1,-1,17,19,-1,21,23,-1,-1,-1,-1,-1,-1,-1,-1,-1],"loss_changes":[4.398508E17,1.6201634E17,0E0,5.1844194E16,2.9508315E16,4.3136246E15,2.9338166E16,1.8071674E15,1.5418331E16,0E0,0E0,3.310224E16,5.361618E15,0E0,2.9345485E14,1.4791094E16,0E0,0E0,0E0,0E0,0E0,0E0,0E0,0E0,0E0],"parents":[2147483647,0,0,1,1,3,3,4,4,5,5,6,6,7,7,8,8,11,11,12,12,14,14,15,15],"right_children":[2,4,-1,6,8,10,12,14,16,-1,-1,18,20,-1,22,24,-1,-1,-1,-1,-1,-1,-1,-1,-1],"split_conditions":[5E-1,1.1021192E9,-6.611678E6,8.8508934E8,2.82E1,2.79E1,2E-1,7.9E0,3E-1,-2.7496688E6,-8.6071206E5,1.1061281E9,2.81E1,-3.247539E5,8.44E1,1.1331826E9,-2.3592703E5,-3.9499134E5,7.9095975E5,-1.8926266E6,-4.003456E5,9.0781945E4,3.531807E5,7.272778E5,1.7722206E6],"split_indices":[9,12,0,12,2,2,9,7,9,0,0,14,2,0,5,12,0,0,0,0,0,0,0,0,0],"split_type":[0,0,0,0,0,0,0,0,0,0,0,0,0,0,0,0,0,0,0,0,0,0,0,0,0],"sum_hessian":[1.11E2,1.08E2,3E0,6.5E1,4.3E1,5E0,6E1,1E1,3.3E1,3E0,2E0,5.4E1,6E0,2E0,8E0,3.1E1,2E0,4.3E1,1.1E1,4E0,2E0,4E0,4E0,1E1,2.1E1],"tree_param":{"num_deleted":"0","num_feature":"15","num_nodes":"25","size_leaf_vector":"1"}},{"base_weights":[-2.3707165E6,-1.6713178E8,2.0952774E7,-4.2272896E7,-2.1284805E8,-3.2498165E6,8.5613384E7,-1.1274466E6,-2.816499E5,-2.4826352E8,-9.4914856E5,-2.3340188E7,1.922945E7,1.5872269E7,9.705217E7,-2.0033664E6,-5.618677E6,-4.306083E7,-1.182368E7,-1.3134272E7,3.6685924E7,4.5629522E5,7.2780375E4,7.801199E5,1.0072295E8,-5.541668E5,-1.0222331E6,1.3419984E5,-3.8010062E5,-1.1251562E6,-3.585629E3,5.90853E5,1.489204E6,1.3579805E6,2.3139858E6],"categories":[],"categories_nodes":[],"categories_segments":[],"categories_sizes":[],"default_left":[0,0,0,0,0,0,0,0,0,0,0,0,0,0,0,0,0,0,0,0,0,0,0,0,0,0,0,0,0,0,0,0,0,0,0],"id":13,"left_children":[1,3,5,7,9,11,13,-1,-1,15,-1,17,19,21,23,-1,-1,25,27,29,31,-1,-1,-1,33,-1,-1,-1,-1,-1,-1,-1,-1,-1,-1],"loss_changes":[4.3389584E17,7.091544E16,1.552087E17,1.1934791E15,4.6791916E16,3.3416845E16,1.9998931E16,0E0,0E0,1.0565929E16,0E0,8.3482675E15,2.0255321E16,3.4162304E14,9.7191674E14,0E0,0E0,3.1418545E14,3.5880414E15,7.25256E15,4.0063841E15,0E0,0E0,0E0,2.4673556E15,0E0,0E0,0E0,0E0,0E0,0E0,0E0,0E0,0E0,0E0],"parents":[2147483647,0,0,1,1,2,2,3,3,4,4,5,5,6,6,9,9,11,11,12,12,13,13,14,14,17,17,18,18,19,19,20,20,24,24],"right_children":[2,4,6,8,10,12,14,-1,-1,16,-1,18,20,22,24,-1,-1,26,28,30,32,-1,-1,-1,34,-1,-1,-1,-1,-1,-1,-1,-1,-1,-1],"split_conditions":[8E0,4E0,1.1372191E9,2E0,7.07E1,2.024E3,2.86E1,-1.1274466E6,-2.816499E5,6.07E1,-9.4914856E5,2.82E1,2.81E1,3.4E1,1.0072E3,-2.0033664E6,-5.618677E6,3.1E1,1.0263919E9,1.0072E3,3.7E1,4.5629522E5,7.2780375E4,7.801199E5,1.6E1,-5.541668E5,-1.0222331E6,1.3419984E5,-3.8010062E5,-1.1251562E6,-3.585629E3,5.90853E5,1.489204E6,1.3579805E6,2.3139858E6],"split_indices":[0,0,12,0,5,1,2,0,0,5,0,2,2,0,8,0,0,0,13,8,4,0,0,0,0,0,0,0,0,0,0,0,0,0,0],"split_type":[0,0,0,0,0,0,0,0,0,0,0,0,0,0,0,0,0,0,0,0,0,0,0,0,0,0,0,0,0,0,0,0,0,0,0],"sum_hessian":[1.11E2,1.3E1,9.8E1,4E0,9E0,7.2E1,2.6E1,2E0,2E0,7E0,2E0,3.8E1,3.4E1,4E0,2.2E1,2E0,5E0,1.3E1,2.5E1,1.2E1,2.2E1,2E0,2E0,2E0,2E1,6E0,7E0,7E0,1.8E1,2E0,1E1,2E1,2E0,8E0,1.2E1],"tree_param":{"num_deleted":"0","num_feature":"15","num_nodes":"35","size_leaf_vector":"1"}},{"base_weights":[-3.8426042E6,1.0348733E7,-6.3056695E6,-1.0719859E7,8.241074E7,-1.08642616E8,-3.3339772E6,9.122956E7,-2.5340928E5,-2.6474908E6,-8.157167E5,-7.6668105E6,2.2375058E6,2.9969472E5,1.0191704E8,-4.1177426E4,-1.3010869E6,1.6998539E6,2.9673252E6],"categories":[],"categories_nodes":[],"categories_segments":[],"categories_sizes":[],"default_left":[0,0,0,0,0,0,0,0,0,0,0,0,0,0,0,0,0,0,0],"id":14,"left_children":[1,3,-1,5,7,9,11,13,-1,-1,-1,15,-1,-1,17,-1,-1,-1,-1],"loss_changes":[5.071157E17,1.6789037E17,0E0,6.1836933E16,2.2118532E16,4.2632275E15,4.129151E16,1.7214693E16,0E0,0E0,0E0,2.52903E16,0E0,0E0,3.1124082E15,0E0,0E0,0E0,0E0],"parents":[2147483647,0,0,1,1,3,3,4,4,5,5,6,6,7,7,11,11,14,14],"right_children":[2,4,-1,6,8,10,12,14,-1,-1,-1,16,-1,-1,18,-1,-1,-1,-1],"split_conditions":[5E-1,1.1324718E9,-6.3056695E6,8.8508934E8,3E-1,2.79E1,1.1819674E9,2.86E1,-2.5340928E5,-2.6474908E6,-8.157167E5,2E-1,2.2375058E6,2.9969472E5,3.8E1,-4.1177426E4,-1.3010869E6,1.6998539E6,2.9673252E6],"split_indices":[9,12,0,12,9,2,13,2,0,0,0,9,0,0,4,0,0,0,0],"split_type":[0,0,0,0,0,0,0,0,0,0,0,0,0,0,0,0,0,0,0],"sum_hessian":[1.13E2,1.09E2,4E0,8.5E1,2.4E1,5E0,8E1,2.2E1,2E0,3E0,2E0,7.8E1,2E0,3E0,1.9E1,7.2E1,6E0,1.6E1,3E0],"tree_param":{"num_deleted":"0","num_feature":"15","num_nodes":"19","size_leaf_vector":"1"}},{"base_weights":[-2.542333E6,1.1859774E7,-6.2047795E6,-2.0957936E7,5.7541016E7,-5.311175E7,-3.6164618E6,1.5701053E7,8.485281E7,-9.39696E7,-3.191696E7,-1.2241254E7,5.01725E7,-6.984124E5,2.3710698E7,9.314122E7,-2.5003008E5,-2.265111E6,-6.1006294E5,-3.1080506E5,-1.5432402E6,-3.626842E5,6.672232E4,1.3779012E6,4.7174912E5,8.261777E5,2.5871423E5,1.4924142E6,3.0459818E6],"categories":[],"categories_nodes":[],"categories_segments":[],"categories_sizes":[],"default_left":[0,0,0,0,0,0,0,0,0,0,0,0,0,0,0,0,0,0,0,0,0,0,0,0,0,0,0,0,0],"id":15,"left_children":[1,3,-1,5,7,9,11,13,15,17,19,21,23,-1,25,27,-1,-1,-1,-1,-1,-1,-1,-1,-1,-1,-1,-1,-1],"loss_changes":[4.9557363E17,1.6161538E17,0E0,3.4936385E16,5.0090314E16,1.6052191E16,2.0098757E16,8.531763E15,2.2951034E16,5.113425E15,1.0656322E16,3.4569778E15,1.3613833E15,0E0,2.6891832E15,1.6026172E16,0E0,0E0,0E0,0E0,0E0,0E0,0E0,0E0,0E0,0E0,0E0,0E0,0E0],"parents":[2147483647,0,0,1,1,3,3,4,4,5,5,6,6,7,7,8,8,9,9,10,10,11,11,12,12,14,14,15,15],"right_children":[2,4,-1,6,8,10,12,14,16,18,20,22,24,-1,26,28,-1,-1,-1,-1,-1,-1,-1,-1,-1,-1,-1,-1,-1],"split_conditions":[5E-1,1.1021192E9,-6.2047795E6,2.81E1,2.92E1,3.6E0,1.1310552E9,2.69E1,3E-1,7E0,1.44E1,2.024E3,2.6E1,-6.984124E5,2.4E1,3.8E1,-2.5003008E5,-2.265111E6,-6.1006294E5,-3.1080506E5,-1.5432402E6,-3.626842E5,6.672232E4,1.3779012E6,4.7174912E5,8.261777E5,2.5871423E5,1.4924142E6,3.0459818E6],"split_indices":[9,12,0,2,2,6,14,2,9,0,7,1,0,0,0,4,0,0,0,0,0,0,0,0,0,0,0,0,0],"split_type":[0,0,0,0,0,0,0,0,0,0,0,0,0,0,0,0,0,0,0,0,0,0,0,0,0,0,0,0,0],"sum_hessian":[1.1E2,1.06E2,4E0,6.2E1,4.4E1,2.1E1,4.1E1,1.8E1,2.6E1,6E0,1.5E1,3.6E1,5E0,2E0,1.6E1,2.4E1,2E0,4E0,2E0,1.2E1,3E0,2.6E1,1E1,2E0,3E0,5E0,1.1E1,2E1,4E0],"tree_param":{"num_deleted":"0","num_feature":"15","num_nodes":"29","size_leaf_vector":"1"}},{"base_weights":[1.5530352E6,1.069596E7,-6.074576E6,-1.8750648E7,5.533464E7,-4.67403E7,-3.9571528E6,2.7310576E7,7.7022024E7,-3.1353228E7,-1.7941658E6,1.080768E6,-9.957812E6,7.991021E6,4.389907E7,8.6574456E7,-2.4669695E5,-2.4995316E5,-1.0200707E6,-2.764232E5,5.267187E5,3.035315E5,-2.7668266E5,2.8626175E5,9.901286E5,1.9412124E6,1.0646868E6],"categories":[],"categories_nodes":[],"categories_segments":[],"categories_sizes":[],"default_left":[0,0,0,0,0,0,0,0,0,0,0,0,0,0,0,0,0,0,0,0,0,0,0,0,0,0,0],"id":16,"left_children":[1,3,-1,5,7,9,11,13,15,17,-1,-1,19,21,23,25,-1,-1,-1,-1,-1,-1,-1,-1,-1,-1,-1],"loss_changes":[2.8794787E17,1.3248333E17,0E0,2.507299E16,2.2207231E16,1.1071541E16,1.4806579E16,5.7383673E15,1.9846537E16,5.661378E15,0E0,0E0,5.692178E15,1.7782134E15,9.5040325E14,1.8252408E15,0E0,0E0,0E0,0E0,0E0,0E0,0E0,0E0,0E0,0E0,0E0],"parents":[2147483647,0,0,1,1,3,3,4,4,5,5,6,6,7,7,8,8,9,9,12,12,13,13,14,14,15,15],"right_children":[2,4,-1,6,8,10,12,14,16,18,-1,-1,20,22,24,26,-1,-1,-1,-1,-1,-1,-1,-1,-1,-1,-1],"split_conditions":[5E-1,1.1021192E9,-6.074576E6,2.81E1,2.97E1,2E-1,1.0069E3,1.1310552E9,3E-1,3.4E1,-1.7941658E6,1.080768E6,1.089407E9,3.1E1,2.82E1,1.28E1,-2.4669695E5,-2.4995316E5,-1.0200707E6,-2.764232E5,5.267187E5,3.035315E5,-2.7668266E5,2.8626175E5,9.901286E5,1.9412124E6,1.0646868E6],"split_indices":[9,12,0,2,2,9,8,12,9,4,0,0,12,0,2,7,0,0,0,0,0,0,0,0,0,0,0],"split_type":[0,0,0,0,0,0,0,0,0,0,0,0,0,0,0,0,0,0,0,0,0,0,0,0,0,0,0],"sum_hessian":[1.01E2,9.9E1,2E0,6E1,3.9E1,2E1,4E1,1.8E1,2.1E1,1.6E1,4E0,3E0,3.7E1,9E0,9E0,1.9E1,2E0,9E0,7E0,3.4E1,3E0,7E0,2E0,2E0,7E0,1.3E1,6E0],"tree_param":{"num_deleted":"0","num_feature":"15","num_nodes":"27","size_leaf_vector":"1"}},{"base_weights":[-6.779876E6,7.134821E6,-6.0083095E6,-2.404917E7,4.994088E7,-1.0584532E8,-1.5017134E7,2.8791004E7,8.647559E7,-2.5759735E6,-7.991817E5,-8.351084E6,-6.1438764E7,-4.489472E6,3.7298184E7,2.9410074E7,1.0304659E8,-3.2407188E5,3.7039744E5,-1.6288838E6,-5.2147294E5,2.8779316E5,-6.891639E5,9.862983E5,3.722683E5,7.998626E5,1.8047317E5,1.0040672E6,2.301657E6],"categories":[],"categories_nodes":[],"categories_segments":[],"categories_sizes":[],"default_left":[0,0,0,0,0,0,0,0,0,0,0,0,0,0,0,0,0,0,0,0,0,0,0,0,0,0,0,0,0],"id":17,"left_children":[1,3,-1,5,7,9,11,13,15,-1,-1,17,19,21,23,25,27,-1,-1,-1,-1,-1,-1,-1,-1,-1,-1,-1,-1],"loss_changes":[4.5158695E17,1.426966E17,0E0,4.421523E16,3.2281996E16,3.9271807E15,1.712551E16,8.661141E15,1.2099516E16,0E0,0E0,1.1061315E16,2.8289146E15,4.4563255E15,4.470799E15,7.178686E14,1.8548761E15,0E0,0E0,0E0,0E0,0E0,0E0,0E0,0E0,0E0,0E0,0E0,0E0],"parents":[2147483647,0,0,1,1,3,3,4,4,5,5,6,6,7,7,8,8,11,11,12,12,13,13,14,14,15,15,16,16],"right_children":[2,4,-1,6,8,10,12,14,16,-1,-1,18,20,22,24,26,28,-1,-1,-1,-1,-1,-1,-1,-1,-1,-1,-1,-1],"split_conditions":[5E-1,1.1021192E9,-6.0083095E6,8.8508934E8,1.1403188E9,2.36E1,2E-1,3.4E1,3.6E1,-2.5759735E6,-7.991817E5,1.1061281E9,1.0365786E9,3.4E1,4.64E1,2.4E1,1.5E1,-3.2407188E5,3.7039744E5,-1.6288838E6,-5.2147294E5,2.8779316E5,-6.891639E5,9.862983E5,3.722683E5,7.998626E5,1.8047317E5,1.0040672E6,2.301657E6],"split_indices":[9,12,0,12,14,3,9,4,4,0,0,14,13,0,6,0,0,0,0,0,0,0,0,0,0,0,0,0,0],"split_type":[0,0,0,0,0,0,0,0,0,0,0,0,0,0,0,0,0,0,0,0,0,0,0,0,0,0,0,0,0],"sum_hessian":[1.09E2,1.05E2,4E0,6.1E1,4.4E1,5E0,5.6E1,2.9E1,1.5E1,3E0,2E0,5E1,6E0,6E0,2.3E1,4E0,1.1E1,3.9E1,1.1E1,3E0,3E0,4E0,2E0,1.3E1,1E1,2E0,2E0,3E0,8E0],"tree_param":{"num_deleted":"0","num_feature":"15","num_nodes":"29","size_leaf_vector":"1"}},{"base_weights":[-3.5250228E6,1.0551362E7,-5.9121765E6,-2.3814818E7,4.281291E7,-4.497891E7,-6.2083E6,-1.6025173E5,5.785753E7,-1.9512626E6,-3.5325028E7,2.3081855E6,-4.7549068E7,2.1824854E7,-1.333529E7,6.193385E7,-2.6123433E5,-5.574881E5,-1.4147456E6,-3.833984E5,2.7086344E5,-3.9689684E5,-1.188072E6,-7.9573325E3,6.6071356E5,2.3729408E5,-4.223675E5,7.2279244E5,1.621879E6],"categories":[],"categories_nodes":[],"categories_segments":[],"categories_sizes":[],"default_left":[0,0,0,0,0,0,0,0,0,0,0,0,0,0,0,0,0,0,0,0,0,0,0,0,0,0,0,0,0],"id":18,"left_children":[1,3,-1,5,7,9,11,13,15,-1,17,19,21,23,25,27,-1,-1,-1,-1,-1,-1,-1,-1,-1,-1,-1,-1,-1],"loss_changes":[4.4715932E17,1.1632504E17,0E0,1.8724687E16,3.4921056E16,8.2293463E15,1.0320016E16,4.6358594E15,1.2372555E16,0E0,3.5689482E15,6.292277E15,4.6324873E14,1.5079542E15,2.2119006E15,1.5849649E16,0E0,0E0,0E0,0E0,0E0,0E0,0E0,0E0,0E0,0E0,0E0,0E0,0E0],"parents":[2147483647,0,0,1,1,3,3,4,4,5,5,6,6,7,7,8,8,10,10,11,11,12,12,13,13,14,14,15,15],"right_children":[2,4,-1,6,8,10,12,14,16,-1,18,20,22,24,26,28,-1,-1,-1,-1,-1,-1,-1,-1,-1,-1,-1,-1,-1],"split_conditions":[5E-1,2.88E1,-5.9121765E6,1.0457904E9,2.024E3,8.7802374E8,1.45E1,1.02E1,3E-1,-1.9512626E6,2E-1,1.0629271E9,1.1310552E9,7.99E1,1.0263919E9,2.97E1,-2.6123433E5,-5.574881E5,-1.4147456E6,-3.833984E5,2.7086344E5,-3.9689684E5,-1.188072E6,-7.9573325E3,6.6071356E5,2.3729408E5,-4.223675E5,7.2279244E5,1.621879E6],"split_indices":[9,2,0,13,1,12,7,7,9,0,9,12,13,5,13,2,0,0,0,0,0,0,0,0,0,0,0,0,0],"split_type":[0,0,0,0,0,0,0,0,0,0,0,0,0,0,0,0,0,0,0,0,0,0,0,0,0,0,0,0,0],"sum_hessian":[1.07E2,1.03E2,4E0,5E1,5.3E1,2.2E1,2.8E1,1.4E1,3.9E1,2E0,2E1,2.4E1,4E0,5E0,9E0,3.7E1,2E0,1.8E1,2E0,8E0,1.6E1,2E0,2E0,2E0,3E0,2E0,7E0,1.7E1,2E1],"tree_param":{"num_deleted":"0","num_feature":"15","num_nodes":"29","size_leaf_vector":"1"}},{"base_weights":[-5.291338E6,-1.5409701E8,1.8510538E7,-2.1532787E8,-7.360401E7,-6.597859E4,7.269479E7,-5.3931585E6,-1.8716675E6,-1.606416E5,-1.1134075E8,8.1643785E6,-2.8868104E7,8.603333E7,2.8010734E7,-2.841303E6,-8.7005525E5,-2.5739548E7,1.274764E7,1.0463019E5,-3.4113156E7,6.5190936E7,2.8536792E6,9.027272E5,-1.973777E5,-7.26465E5,9.596159E3,3.711605E5,-3.15678E5,-1.1678519E6,-5.0401066E5,3.487906E5,1.4239161E6],"categories":[],"categories_nodes":[],"categories_segments":[],"categories_sizes":[],"default_left":[0,0,0,0,0,0,0,0,0,0,0,0,0,0,0,0,0,0,0,0,0,0,0,0,0,0,0,0,0,0,0,0,0],"id":19,"left_children":[1,3,5,7,9,11,13,-1,-1,-1,15,17,19,21,23,-1,-1,25,27,-1,29,31,-1,-1,-1,-1,-1,-1,-1,-1,-1,-1,-1],"loss_changes":[3.8537268E17,5.8080843E16,9.462094E16,2.7679587E16,1.8901472E16,1.7066365E16,1.1894628E16,0E0,0E0,0E0,4.2411814E15,9.029992E15,3.0401314E15,1.1951511E16,4.9864297E15,0E0,0E0,1.9599128E15,8.581882E15,0E0,1.5579844E15,3.0594856E15,0E0,0E0,0E0,0E0,0E0,0E0,0E0,0E0,0E0,0E0,0E0],"parents":[2147483647,0,0,1,1,2,2,3,3,4,4,5,5,6,6,10,10,11,11,12,12,13,13,14,14,17,17,18,18,20,20,21,21],"right_children":[2,4,6,8,10,12,14,-1,-1,-1,16,18,20,22,24,-1,-1,26,28,-1,30,32,-1,-1,-1,-1,-1,-1,-1,-1,-1,-1,-1],"split_conditions":[8E0,9.688512E8,1.1372191E9,6.69E1,6.99E1,8.77E1,4.16E1,-5.3931585E6,-1.8716675E6,-1.606416E5,7.07E1,2.3E1,2.7E1,1.2158002E9,3.5E1,-2.841303E6,-8.7005525E5,1E0,1.39E1,1.0463019E5,1.0067E3,1.1331826E9,2.8536792E6,9.027272E5,-1.973777E5,-7.26465E5,9.596159E3,3.711605E5,-3.15678E5,-1.1678519E6,-5.0401066E5,3.487906E5,1.4239161E6],"split_indices":[0,12,12,5,5,5,6,0,0,0,5,3,0,14,4,0,0,6,7,0,8,13,0,0,0,0,0,0,0,0,0,0,0],"split_type":[0,0,0,0,0,0,0,0,0,0,0,0,0,0,0,0,0,0,0,0,0,0,0,0,0,0,0,0,0,0,0,0,0],"sum_hessian":[1.07E2,1.4E1,9.3E1,7E0,7E0,7E1,2.3E1,4E0,3E0,3E0,4E0,5.5E1,1.5E1,1.7E1,6E0,2E0,2E0,6E0,4.9E1,2E0,1.3E1,1.4E1,3E0,4E0,2E0,4E0,2E0,4.1E1,8E0,2E0,1.1E1,2E0,1.2E1],"tree_param":{"num_deleted":"0","num_feature":"15","num_nodes":"33","size_leaf_vector":"1"}},{"base_weights":[-4.8836755E6,4.229918E6,-4.9490275E6,-1.9943714E7,4.689019E7,-5.8249924E7,-3.1197518E6,6.9274605E6,6.6605116E7,-2.4623822E6,-4.059844E7,-2.1638728E7,2.48147E7,-5.506387E5,1.8828382E7,4.2245924E7,1.8300735E6,-4.3634622E5,-1.701318E6,-2.738394E5,-8.356163E5,-6.5202832E4,7.415929E5,-1.17018445E5,4.9925547E5,9.387506E5,1.5667284E5],"categories":[],"categories_nodes":[],"categories_segments":[],"categories_sizes":[],"default_left":[0,0,0,0,0,0,0,0,0,0,0,0,0,0,0,0,0,0,0,0,0,0,0,0,0,0,0],"id":20,"left_children":[1,3,-1,5,7,9,11,13,15,-1,17,19,21,-1,23,25,-1,-1,-1,-1,-1,-1,-1,-1,-1,-1,-1],"loss_changes":[2.442197E17,1.1127931E17,0E0,4.4286164E16,3.0265226E16,1.9047338E16,2.5885514E16,6.259762E15,1.1903571E16,0E0,1.3176771E16,4.2298674E15,7.0076107E15,0E0,1.8113727E15,2.0540402E15,0E0,0E0,0E0,0E0,0E0,0E0,0E0,0E0,0E0,0E0,0E0],"parents":[2147483647,0,0,1,1,3,3,4,4,5,5,6,6,7,7,8,8,10,10,11,11,12,12,14,14,15,15],"right_children":[2,4,-1,6,8,10,12,14,16,-1,18,20,22,-1,24,26,-1,-1,-1,-1,-1,-1,-1,-1,-1,-1,-1],"split_conditions":[5E-1,1.1021192E9,-4.9490275E6,2.81E1,2.92E1,8.7802374E8,2.024E3,2.78E1,1.1403188E9,-2.4623822E6,2E-1,1.22E1,4E-1,-5.506387E5,1.18E1,1.131649E9,1.8300735E6,-4.3634622E5,-1.701318E6,-2.738394E5,-8.356163E5,-6.5202832E4,7.415929E5,-1.17018445E5,4.9925547E5,9.387506E5,1.5667284E5],"split_indices":[9,12,0,2,2,12,1,2,14,0,9,7,6,0,7,14,0,0,0,0,0,0,0,0,0,0,0],"split_type":[0,0,0,0,0,0,0,0,0,0,0,0,0,0,0,0,0,0,0,0,0,0,0,0,0,0,0],"sum_hessian":[1.09E2,1.06E2,3E0,6.8E1,3.8E1,2E1,4.8E1,1.3E1,2.5E1,3E0,1.7E1,2.9E1,1.9E1,3E0,1E1,1.4E1,1.1E1,1.3E1,4E0,2.2E1,7E0,6E0,1.3E1,2E0,8E0,1.2E1,2E0],"tree_param":{"num_deleted":"0","num_feature":"15","num_nodes":"27","size_leaf_vector":"1"}},{"base_weights":[-4.9031395E6,4.3300235E6,-4.8747915E6,-2.1856946E7,3.19725E7,-4.690202E7,-5.7450785E6,-6.2565715E6,4.6606652E7,-7.475176E7,-3.077867E7,-1.1602953E7,1.8507146E7,1.6071574E6,-5.656723E5,5.2945676E7,-3.785344E5,-5.9531006E5,-1.7358634E6,-7.7422225E5,2.770961E5,5.246174E5,-3.1044253E5,-3.249314E5,7.131589E5,-3.218323E5,1.8589411E5,7.819707E5,1.7413134E6],"categories":[],"categories_nodes":[],"categories_segments":[],"categories_sizes":[],"default_left":[0,0,0,0,0,0,0,0,0,0,0,0,0,0,0,0,0,0,0,0,0,0,0,0,0,0,0,0,0],"id":21,"left_children":[1,3,-1,5,7,9,11,13,15,17,19,21,23,25,-1,27,-1,-1,-1,-1,-1,-1,-1,-1,-1,-1,-1,-1,-1],"loss_changes":[2.3701351E17,7.598158E16,0E0,2.1520782E16,2.8823556E16,7.128894E15,5.044998E15,2.643677E15,1.6372544E16,1.2084449E15,5.8471234E15,4.558924E15,4.7516973E15,1.782289E15,0E0,1.2659648E16,0E0,0E0,0E0,0E0,0E0,0E0,0E0,0E0,0E0,0E0,0E0,0E0,0E0],"parents":[2147483647,0,0,1,1,3,3,4,4,5,5,6,6,7,7,8,8,9,9,10,10,11,11,12,12,13,13,15,15],"right_children":[2,4,-1,6,8,10,12,14,16,18,20,22,24,26,-1,28,-1,-1,-1,-1,-1,-1,-1,-1,-1,-1,-1,-1,-1],"split_conditions":[5E-1,1.07813E9,-4.8747915E6,2.82E1,2.82E1,8E0,1.0743756E9,8.56E1,2E-1,2.75E1,2.025E3,8.7802374E8,7.89E1,2.36E1,-5.656723E5,1.192829E9,-3.785344E5,-5.9531006E5,-1.7358634E6,-7.7422225E5,2.770961E5,5.246174E5,-3.1044253E5,-3.249314E5,7.131589E5,-3.218323E5,1.8589411E5,7.819707E5,1.7413134E6],"split_indices":[9,13,0,2,2,0,14,5,9,2,1,14,5,6,0,13,0,0,0,0,0,0,0,0,0,0,0,0,0],"split_type":[0,0,0,0,0,0,0,0,0,0,0,0,0,0,0,0,0,0,0,0,0,0,0,0,0,0,0,0,0],"sum_hessian":[1.06E2,1.03E2,3E0,5.3E1,5E1,2E1,3.3E1,1.4E1,3.6E1,6E0,1.4E1,2.7E1,6E0,1.1E1,3E0,3.3E1,3E0,2E0,4E0,1.2E1,2E0,2E0,2.5E1,2E0,4E0,3E0,8E0,2.5E1,8E0],"tree_param":{"num_deleted":"0","num_feature":"15","num_nodes":"29","size_leaf_vector":"1"}},{"base_weights":[-4.1614098E6,8.611122E6,-5.584316E6,-2.2485188E7,4.9448572E7,-9.953741E7,-1.397995E7,2.8008268E7,8.923864E7,-2.405111E6,-7.7468156E5,-7.0024295E6,-6.2819036E7,-6.4777044E5,3.3114338E7,1.0492408E8,-2.7412566E5,-2.1906978E5,1.1973136E6,-1.7026659E6,-4.960003E5,4.8395972E5,9.705449E5,1.6282445E6,3.279936E6],"categories":[],"categories_nodes":[],"categories_segments":[],"categories_sizes":[],"default_left":[0,0,0,0,0,0,0,0,0,0,0,0,0,0,0,0,0,0,0,0,0,0,0,0,0],"id":22,"left_children":[1,3,-1,5,7,9,11,13,15,-1,-1,17,19,-1,21,23,-1,-1,-1,-1,-1,-1,-1,-1,-1],"loss_changes":[3.958762E17,1.382604E17,0E0,3.9240015E16,3.7596804E16,2.9004043E15,1.898433E16,1.094101E16,2.7273901E16,0E0,0E0,1.4129932E16,3.827256E15,0E0,2.9485466E15,6.093373E15,0E0,0E0,0E0,0E0,0E0,0E0,0E0,0E0,0E0],"parents":[2147483647,0,0,1,1,3,3,4,4,5,5,6,6,7,7,8,8,11,11,12,12,14,14,15,15],"right_children":[2,4,-1,6,8,10,12,14,16,-1,-1,18,20,-1,22,24,-1,-1,-1,-1,-1,-1,-1,-1,-1],"split_conditions":[5E-1,1.1021192E9,-5.584316E6,8.8508934E8,3E1,2.79E1,2E-1,2.69E1,3E-1,-2.405111E6,-7.7468156E5,1.1556228E9,2.81E1,-6.4777044E5,1.1487406E9,3.17E1,-2.7412566E5,-2.1906978E5,1.1973136E6,-1.7026659E6,-4.960003E5,4.8395972E5,9.705449E5,1.6282445E6,3.279936E6],"split_indices":[9,12,0,12,2,2,9,2,9,0,0,14,2,0,12,2,0,0,0,0,0,0,0,0,0],"split_type":[0,0,0,0,0,0,0,0,0,0,0,0,0,0,0,0,0,0,0,0,0,0,0,0,0],"sum_hessian":[1.11E2,1.07E2,4E0,6.1E1,4.6E1,5E0,5.6E1,3.1E1,1.5E1,3E0,2E0,5E1,6E0,2E0,2.9E1,1.3E1,2E0,4.8E1,2E0,3E0,3E0,2E1,9E0,1.1E1,2E0],"tree_param":{"num_deleted":"0","num_feature":"15","num_nodes":"25","size_leaf_vector":"1"}},{"base_weights":[-4.1483516E5,8.2304535E6,-4.7179045E6,-1.6370791E7,4.7865076E7,-8.940745E7,-1.0409008E7,7.475238E7,2.0024232E7,-2.2158955E6,-7.643529E5,-3.5639228E6,-6.5638428E7,3.8997376E7,1.1018315E8,-3.0390898E6,3.3420352E7,-2.2635897E5,7.981999E5,-1.6351766E6,-3.3783212E5,1.0374072E6,-3.3823403E5,2.753718E6,6.90151E5,2.630959E5,-5.314029E5,9.425415E5,3.4498847E5],"categories":[],"categories_nodes":[],"categories_segments":[],"categories_sizes":[],"default_left":[0,0,0,0,0,0,0,0,0,0,0,0,0,0,0,0,0,0,0,0,0,0,0,0,0,0,0,0,0],"id":23,"left_children":[1,3,-1,5,7,9,11,13,15,-1,-1,17,19,21,23,25,27,-1,-1,-1,-1,-1,-1,-1,-1,-1,-1,-1,-1],"loss_changes":[2.2995068E17,1.0706524E17,0E0,2.8678508E16,2.9942888E16,1.2397509E15,2.3961275E16,2.2306523E16,6.898665E15,0E0,0E0,2.0003379E16,4.119694E15,9.513816E15,1.6061666E16,3.7790574E15,2.2901925E15,0E0,0E0,0E0,0E0,0E0,0E0,0E0,0E0,0E0,0E0,0E0,0E0],"parents":[2147483647,0,0,1,1,3,3,4,4,5,5,6,6,7,7,8,8,11,11,12,12,13,13,14,14,15,15,16,16],"right_children":[2,4,-1,6,8,10,12,14,16,-1,-1,18,20,22,24,26,28,-1,-1,-1,-1,-1,-1,-1,-1,-1,-1,-1,-1],"split_conditions":[5E-1,1.1021192E9,-4.7179045E6,8.8508934E8,2.2E1,2.16E1,2E-1,1.1403188E9,3.4E1,-2.2158955E6,-7.643529E5,1.1310552E9,2.41E1,2.6E1,2E-1,3.4E1,7.76E1,-2.2635897E5,7.981999E5,-1.6351766E6,-3.3783212E5,1.0374072E6,-3.3823403E5,2.753718E6,6.90151E5,2.630959E5,-5.314029E5,9.425415E5,3.4498847E5],"split_indices":[9,12,0,12,0,3,9,14,4,0,0,14,3,3,9,0,5,0,0,0,0,0,0,0,0,0,0,0,0],"split_type":[0,0,0,0,0,0,0,0,0,0,0,0,0,0,0,0,0,0,0,0,0,0,0,0,0,0,0,0,0],"sum_hessian":[1.11E2,1.08E2,3E0,6.7E1,4.1E1,4E0,6.3E1,2E1,2.1E1,2E0,2E0,5.7E1,6E0,1.1E1,9E0,8E0,1.3E1,4.9E1,8E0,4E0,2E0,9E0,2E0,6E0,3E0,5E0,3E0,6E0,7E0],"tree_param":{"num_deleted":"0","num_feature":"15","num_nodes":"29","size_leaf_vector":"1"}},{"base_weights":[-8.7865656E5,1.1869982E7,-5.419481E6,1.4178338E6,9.3626984E7,-1.4257897E7,3.1301264E7,3.95648E5,1.1604381E8,-8.2864335E6,-6.0845824E7,-2.3335215E6,4.602654E7,2.6939868E6,6.766592E5,-3.3847672E5,4.4499366E5,-1.652598E6,-4.7700575E5,-6.320486E5,1.5364123E5,1.03555206E6,-1.9146153E5],"categories":[],"categories_nodes":[],"categories_segments":[],"categories_sizes":[],"default_left":[0,0,0,0,0,0,0,0,0,0,0,0,0,0,0,0,0,0,0,0,0,0,0],"id":24,"left_children":[1,3,-1,5,7,9,11,-1,13,15,17,19,21,-1,-1,-1,-1,-1,-1,-1,-1,-1,-1],"loss_changes":[3.8198477E17,9.04481E16,0E0,4.4948525E16,1.7568693E16,1.7022283E16,1.6451692E16,0E0,9.245905E15,1.5410455E16,3.6706487E15,3.4673692E15,7.850075E15,0E0,0E0,0E0,0E0,0E0,0E0,0E0,0E0,0E0,0E0],"parents":[2147483647,0,0,1,1,3,3,4,4,5,5,6,6,8,8,9,9,10,10,11,11,12,12],"right_children":[2,4,-1,6,8,10,12,-1,14,16,18,20,22,-1,-1,-1,-1,-1,-1,-1,-1,-1,-1],"split_conditions":[5E-1,1.1905295E9,-5.419481E6,1.1021192E9,2.94E1,2E-1,2.82E1,3.95648E5,2E-1,1.1061281E9,2.81E1,2.69E1,2E-1,2.6939868E6,6.766592E5,-3.3847672E5,4.4499366E5,-1.652598E6,-4.7700575E5,-6.320486E5,1.5364123E5,1.03555206E6,-1.9146153E5],"split_indices":[9,14,0,12,2,9,2,0,9,14,2,2,9,0,0,0,0,0,0,0,0,0,0],"split_type":[0,0,0,0,0,0,0,0,0,0,0,0,0,0,0,0,0,0,0,0,0,0,0],"sum_hessian":[1.09E2,1.05E2,4E0,9.4E1,1.1E1,6.2E1,3.2E1,3E0,8E0,5.6E1,6E0,1E1,2.2E1,6E0,2E0,4.4E1,1.2E1,3E0,3E0,2E0,8E0,2E1,2E0],"tree_param":{"num_deleted":"0","num_feature":"15","num_nodes":"23","size_leaf_vector":"1"}},{"base_weights":[4.0609645E6,-2.8175624E7,5.344594E7,-1.8371106E7,-4.5589355E6,3.280182E7,9.856299E7,-1.7441542E6,-1.3556066E7,6.9223465E6,4.6689416E7,1.07379384E8,6.6763775E5,-8.737301E6,-5.627186E7,-2.1205503E5,1.1487642E7,5.192872E7,-6.190932E3,1.5703071E6,3.163567E6,-3.601052E5,1.28086625E5,-1.4429302E6,-3.2696744E5,4.5940734E4,3.4463744E5,6.134804E5,1.3173015E6],"categories":[],"categories_nodes":[],"categories_segments":[],"categories_sizes":[],"default_left":[0,0,0,0,0,0,0,0,0,0,0,0,0,0,0,0,0,0,0,0,0,0,0,0,0,0,0,0,0],"id":25,"left_children":[1,3,5,7,-1,9,11,-1,13,15,17,19,-1,21,23,-1,25,27,-1,-1,-1,-1,-1,-1,-1,-1,-1,-1,-1],"loss_changes":[1.7344222E17,1.250839E17,3.6817233E16,2.0030677E16,0E0,1.0818314E16,3.8860864E15,0E0,1.2064417E16,1.0818875E15,4.940909E15,3.7094602E15,0E0,7.9739064E15,2.6231513E15,0E0,4.883473E14,3.3114928E15,0E0,0E0,0E0,0E0,0E0,0E0,0E0,0E0,0E0,0E0,0E0],"parents":[2147483647,0,0,1,1,2,2,3,3,5,5,6,6,8,8,9,9,10,10,11,11,13,13,14,14,16,16,17,17],"right_children":[2,4,6,8,-1,10,12,-1,14,16,18,20,-1,22,24,-1,26,28,-1,-1,-1,-1,-1,-1,-1,-1,-1,-1,-1],"split_conditions":[1.1061281E9,5E-1,3.7E1,8.8508934E8,-4.5589355E6,2.84E1,2E-1,-1.7441542E6,2E-1,1.06779085E9,3.01E1,3.17E1,6.6763775E5,2.024E3,2.81E1,-2.1205503E5,8.44E1,1.1428504E9,-6.190932E3,1.5703071E6,3.163567E6,-3.601052E5,1.28086625E5,-1.4429302E6,-3.2696744E5,4.5940734E4,3.4463744E5,6.134804E5,1.3173015E6],"split_indices":[12,9,4,12,0,2,9,0,9,14,2,2,0,1,2,0,5,12,0,0,0,0,0,0,0,0,0,0,0],"split_type":[0,0,0,0,0,0,0,0,0,0,0,0,0,0,0,0,0,0,0,0,0,0,0,0,0,0,0,0,0],"sum_hessian":[1.07E2,6.5E1,4.2E1,6.3E1,2E0,3E1,1.2E1,3E0,6E1,1.1E1,1.9E1,1E1,2E0,5.5E1,5E0,2E0,9E0,1.7E1,2E0,8E0,2E0,3.4E1,2.1E1,3E0,2E0,4E0,5E0,8E0,9E0],"tree_param":{"num_deleted":"0","num_feature":"15","num_nodes":"29","size_leaf_vector":"1"}},{"base_weights":[1.9165351E6,-9.972201E7,1.6257672E7,-3.404397E6,-4.9476316E7,-2.1072205E6,6.8379336E7,-1.14848E7,-2.4326215E6,-2.3611742E7,7.7929185E6,3.1391512E7,9.255695E7,-2.2675814E7,2.1990314E5,-5.7865612E7,-1.2785013E7,-3.9541392E6,3.1534168E7,7.5701956E5,3.0985385E4,6.128358E5,2.0064532E6,-1.5476436E5,-6.010961E5,-4.1764562E5,-1.5112081E6,-5.4002944E5,1.6721488E5,7.973263E4,-5.1144975E5,3.892346E5,1.2577209E6],"categories":[],"categories_nodes":[],"categories_segments":[],"categories_sizes":[],"default_left":[0,0,0,0,0,0,0,0,0,0,0,0,0,0,0,0,0,0,0,0,0,0,0,0,0,0,0,0,0,0,0,0,0],"id":26,"left_children":[1,3,5,-1,7,9,11,13,-1,15,17,19,21,23,-1,25,27,29,31,-1,-1,-1,-1,-1,-1,-1,-1,-1,-1,-1,-1,-1,-1],"loss_changes":[1.532129E17,3.762693E16,8.820729E16,0E0,2.3274512E16,1.4873948E16,1.8557162E16,2.0103386E15,0E0,7.419049E15,1.3511402E16,2.0617722E15,3.657345E15,3.1855128E14,0E0,1.6941885E15,5.636873E15,5.7669374E15,4.832026E15,0E0,0E0,0E0,0E0,0E0,0E0,0E0,0E0,0E0,0E0,0E0,0E0,0E0,0E0],"parents":[2147483647,0,0,1,1,2,2,4,4,5,5,6,6,7,7,9,9,10,10,11,11,12,12,13,13,15,15,16,16,17,17,18,18],"right_children":[2,4,6,-1,8,10,12,14,-1,16,18,20,22,24,-1,26,28,30,32,-1,-1,-1,-1,-1,-1,-1,-1,-1,-1,-1,-1,-1,-1],"split_conditions":[8E0,8.837024E8,1.1372191E9,-3.404397E6,6E0,2.81E1,2.94E1,2.85E1,-2.4326215E6,1.0072E3,1.089407E9,3.5E1,2.41E1,1.00978176E9,2.1990314E5,3E1,1.0889385E9,1.23E1,3.7E1,7.5701956E5,3.0985385E4,6.128358E5,2.0064532E6,-1.5476436E5,-6.010961E5,-4.1764562E5,-1.5112081E6,-5.4002944E5,1.6721488E5,7.973263E4,-5.1144975E5,3.892346E5,1.2577209E6],"split_indices":[0,12,12,0,0,2,2,2,0,8,12,0,3,13,0,0,13,7,4,0,0,0,0,0,0,0,0,0,0,0,0,0,0],"split_type":[0,0,0,0,0,0,0,0,0,0,0,0,0,0,0,0,0,0,0,0,0,0,0,0,0,0,0,0,0,0,0,0,0],"sum_hessian":[1.03E2,1.2E1,9.1E1,4E0,8E0,6.8E1,2.3E1,6E0,2E0,2.1E1,4.7E1,1E1,1.3E1,4E0,2E0,4E0,1.7E1,3.2E1,1.5E1,8E0,2E0,2E0,1.1E1,2E0,2E0,2E0,2E0,1E1,7E0,2.4E1,8E0,1.2E1,3E0],"tree_param":{"num_deleted":"0","num_feature":"15","num_nodes":"33","size_leaf_vector":"1"}},{"base_weights":[-1.845452E6,-1.1486365E8,1.818741E7,-1.8682944E8,-4.5804652E7,1.152786E6,6.4005524E7,-4.8633115E6,-1.394038E6,-1.6084952E7,-2.1957792E6,-1.5144214E7,1.8348106E7,3.0203508E7,8.324406E7,-9.1965094E5,1.544672E6,-2.1067624E7,8.9616E6,-1.5608219E6,3.9519964E7,7.477824E4,7.932073E5,9.9668344E7,1.8108288E5,-1.3903072E5,2.4716117E5,-2.7015897E5,-7.4411975E5,-2.17536E4,5.214592E5,2.9656416E5,-2.4713545E5,1.6443477E5,8.628989E5,1.5104446E6,3.0996258E6],"categories":[],"categories_nodes":[],"categories_segments":[],"categories_sizes":[],"default_left":[0,0,0,0,0,0,0,0,0,0,0,0,0,0,0,0,0,0,0,0,0,0,0,0,0,0,0,0,0,0,0,0,0,0,0,0,0],"id":27,"left_children":[1,3,5,7,9,11,13,-1,-1,15,-1,17,19,21,23,-1,25,27,29,31,33,-1,-1,35,-1,-1,-1,-1,-1,-1,-1,-1,-1,-1,-1,-1,-1],"loss_changes":[2.5566581E17,7.593038E16,7.485367E16,3.5838977E16,1.7249997E16,2.017435E16,1.4393578E16,0E0,0E0,4.2876948E15,0E0,5.471979E15,1.4814495E16,2.6047055E15,1.8593841E16,0E0,6.371442E14,3.1574474E15,1.4040138E15,3.544997E15,1.5740196E15,0E0,0E0,5.658173E15,0E0,0E0,0E0,0E0,0E0,0E0,0E0,0E0,0E0,0E0,0E0,0E0,0E0],"parents":[2147483647,0,0,1,1,2,2,3,3,4,4,5,5,6,6,9,9,11,11,12,12,13,13,14,14,16,16,17,17,18,18,19,19,20,20,23,23],"right_children":[2,4,6,8,10,12,14,-1,-1,16,-1,18,20,22,24,-1,26,28,30,32,34,-1,-1,36,-1,-1,-1,-1,-1,-1,-1,-1,-1,-1,-1,-1,-1],"split_conditions":[8E0,9.688512E8,1.1372191E9,6.69E1,6E0,2.88E1,2.94E1,-4.8633115E6,-1.394038E6,2E0,-2.1957792E6,1.1021192E9,1.0822262E9,2.82E1,1.2322646E9,-9.1965094E5,1.0629271E9,1.06E1,3.6E1,1.0263919E9,1.02635366E9,7.477824E4,7.932073E5,3.17E1,1.8108288E5,-1.3903072E5,2.4716117E5,-2.7015897E5,-7.4411975E5,-2.17536E4,5.214592E5,2.9656416E5,-2.4713545E5,1.6443477E5,8.628989E5,1.5104446E6,3.0996258E6],"split_indices":[0,12,13,5,0,2,2,0,0,0,0,14,12,2,12,0,14,7,0,13,13,0,0,2,0,0,0,0,0,0,0,0,0,0,0,0,0],"split_type":[0,0,0,0,0,0,0,0,0,0,0,0,0,0,0,0,0,0,0,0,0,0,0,0,0,0,0,0,0,0,0,0,0,0,0,0,0],"sum_hessian":[1.11E2,1.6E1,9.5E1,7E0,9E0,7E1,2.5E1,4E0,3E0,7E0,2E0,3.6E1,3.4E1,1E1,1.5E1,2E0,5E0,2.9E1,7E0,1.8E1,1.6E1,3E0,7E0,1.2E1,3E0,3E0,2E0,2.1E1,8E0,5E0,2E0,7E0,1.1E1,2E0,1.4E1,1E1,2E0],"tree_param":{"num_deleted":"0","num_feature":"15","num_nodes":"37","size_leaf_vector":"1"}},{"base_weights":[-8.7938306E5,9.02051E6,-5.359133E6,-1.1741902E7,6.339418E7,-3.85608E7,3.738294E6,2.5453116E7,9.963837E7,-6.6996348E7,-1.7461504E7,-1.9299966E7,2.3351862E7,3.5962564E7,-6.41507E5,1.14250136E8,6.1786944E5,-4.0485856E5,-1.6066321E6,-5.4208E4,-7.112317E5,-4.672042E5,3.381696E5,2.0463836E5,6.808071E5,-6.92375E4,1.04157056E6,2.4526348E6,9.64561E5],"categories":[],"categories_nodes":[],"categories_segments":[],"categories_sizes":[],"default_left":[0,0,0,0,0,0,0,0,0,0,0,0,0,0,0,0,0,0,0,0,0,0,0,0,0,0,0,0,0],"id":28,"left_children":[1,3,-1,5,7,9,11,13,15,17,19,21,23,25,-1,27,-1,-1,-1,-1,-1,-1,-1,-1,-1,-1,-1,-1,-1],"loss_changes":[2.9590517E17,1.2266865E17,0E0,3.294193E16,3.8718194E16,1.6229277E16,2.3495677E16,1.0826991E16,1.1537674E16,5.8554835E15,4.7095444E15,3.923348E15,3.578208E15,9.075369E15,0E0,7.261587E14,0E0,0E0,0E0,0E0,0E0,0E0,0E0,0E0,0E0,0E0,0E0,0E0,0E0],"parents":[2147483647,0,0,1,1,3,3,4,4,5,5,6,6,7,7,8,8,9,9,10,10,11,11,12,12,13,13,15,15],"right_children":[2,4,-1,6,8,10,12,14,16,18,20,22,24,26,-1,28,-1,-1,-1,-1,-1,-1,-1,-1,-1,-1,-1,-1,-1],"split_conditions":[5E-1,2.98E1,-5.359133E6,2.8E1,1.1403188E9,1.0365786E9,2.024E3,2E-1,2E-1,2.73E1,8.46E1,1.31E1,2.88E1,2.024E3,-6.41507E5,7.81E1,6.1786944E5,-4.0485856E5,-1.6066321E6,-5.4208E4,-7.112317E5,-4.672042E5,3.381696E5,2.0463836E5,6.808071E5,-6.92375E4,1.04157056E6,2.4526348E6,9.64561E5],"split_indices":[9,2,0,2,14,13,1,9,9,2,5,7,2,1,0,5,0,0,0,0,0,0,0,0,0,0,0,0,0],"split_type":[0,0,0,0,0,0,0,0,0,0,0,0,0,0,0,0,0,0,0,0,0,0,0,0,0,0,0,0,0],"sum_hessian":[1.1E2,1.07E2,3E0,7.8E1,2.9E1,2.8E1,5E1,1.5E1,1.4E1,1.1E1,1.7E1,2.3E1,2.7E1,1.3E1,2E0,1.1E1,3E0,3E0,8E0,1E1,7E0,2.1E1,2E0,1.3E1,1.4E1,4E0,9E0,9E0,2E0],"tree_param":{"num_deleted":"0","num_feature":"15","num_nodes":"29","size_leaf_vector":"1"}},{"base_weights":[-3.487957E6,7.6990105E6,-5.0675685E6,-1.2371073E7,5.6120452E7,-3.592E7,4.9275345E6,2.0171354E7,9.7914616E7,-6.1204336E7,-1.0044789E7,8.407606E6,-9.78321E5,-7.674702E6,4.1120732E7,1.1224991E8,6.0860156E5,-1.55563E6,-5.282205E5,-3.9780762E5,2.5922922E5,-2.6952342E4,4.3655572E5,1.6254464E5,-3.3860416E5,1.0308787E6,1.9988288E5,2.5483418E6,1.00122556E6],"categories":[],"categories_nodes":[],"categories_segments":[],"categories_sizes":[],"default_left":[0,0,0,0,0,0,0,0,0,0,0,0,0,0,0,0,0,0,0,0,0,0,0,0,0,0,0,0,0],"id":29,"left_children":[1,3,-1,5,7,9,11,13,15,17,19,21,-1,23,25,27,-1,-1,-1,-1,-1,-1,-1,-1,-1,-1,-1,-1,-1],"loss_changes":[3.2623073E17,1.0953837E17,0E0,3.2766082E16,4.760619E16,2.1629296E16,9.218106E15,1.1399383E16,1.1095395E16,7.7508784E15,4.334992E15,5.9206736E15,0E0,1.4538899E15,3.0536874E15,4.940037E15,0E0,0E0,0E0,0E0,0E0,0E0,0E0,0E0,0E0,0E0,0E0,0E0,0E0],"parents":[2147483647,0,0,1,1,3,3,4,4,5,5,6,6,7,7,8,8,9,9,10,10,11,11,13,13,14,14,15,15],"right_children":[2,4,-1,6,8,10,12,14,16,18,20,22,-1,24,26,28,-1,-1,-1,-1,-1,-1,-1,-1,-1,-1,-1,-1,-1],"split_conditions":[5E-1,2.97E1,-5.0675685E6,1.05028595E9,1.1403188E9,2.82E1,2E-1,2.024E3,2E-1,1.0107E3,2.024E3,2.88E1,-9.78321E5,1.0263919E9,1.1098612E9,2.1E1,6.0860156E5,-1.55563E6,-5.282205E5,-3.9780762E5,2.5922922E5,-2.6952342E4,4.3655572E5,1.6254464E5,-3.3860416E5,1.0308787E6,1.9988288E5,2.5483418E6,1.00122556E6],"split_indices":[9,2,0,13,14,2,9,1,9,8,1,2,0,13,14,0,0,0,0,0,0,0,0,0,0,0,0,0,0],"split_type":[0,0,0,0,0,0,0,0,0,0,0,0,0,0,0,0,0,0,0,0,0,0,0,0,0,0,0,0,0],"sum_hessian":[1.15E2,1.11E2,4E0,7.9E1,3.2E1,3.3E1,4.6E1,1.8E1,1.4E1,1.6E1,1.7E1,4.4E1,2E0,8E0,1E1,1.1E1,3E0,1E1,6E0,1.2E1,5E0,2.6E1,1.8E1,3E0,5E0,7E0,3E0,8E0,3E0],"tree_param":{"num_deleted":"0","num_feature":"15","num_nodes":"29","size_leaf_vector":"1"}},{"base_weights":[2.9531442E6,-1.3283993E8,1.2064667E7,-3.299548E6,-6.999497E5,1.8811251E6,8.998173E7,-1.6266414E7,2.1599976E7,2.4659967E5,1.0427908E8,-9.385943E6,-1.4987474E6,-6.14805E6,3.8666564E7,1.1901722E8,6.043537E5,-3.5199012E5,2.4371731E5,-5.67972E5,1.4687552E5,8.60116E5,-2.3657983E5,2.7046172E6,9.3835006E5],"categories":[],"categories_nodes":[],"categories_segments":[],"categories_sizes":[],"default_left":[0,0,0,0,0,0,0,0,0,0,0,0,0,0,0,0,0,0,0,0,0,0,0,0,0],"id":30,"left_children":[1,3,5,-1,-1,7,9,11,13,-1,15,17,-1,19,21,23,-1,-1,-1,-1,-1,-1,-1,-1,-1],"loss_changes":[1.3770366E17,1.6237081E16,8.235178E16,0E0,0E0,3.3631273E16,1.2036809E16,1.907715E16,2.1548109E16,0E0,7.318839E15,8.1876293E15,0E0,5.6121634E15,6.643855E15,3.0073017E15,0E0,0E0,0E0,0E0,0E0,0E0,0E0,0E0,0E0],"parents":[2147483647,0,0,1,1,2,2,5,5,6,6,7,7,8,8,10,10,11,11,13,13,14,14,15,15],"right_children":[2,4,6,-1,-1,8,10,12,14,-1,16,18,-1,20,22,24,-1,-1,-1,-1,-1,-1,-1,-1,-1],"split_conditions":[8.8508934E8,2.36E1,1.1905295E9,-3.299548E6,-6.999497E5,2.88E1,2.94E1,2E-1,2.024E3,2.4659967E5,2E-1,1.1061281E9,-1.4987474E6,2.21E1,2E-1,2.1E1,6.043537E5,-3.5199012E5,2.4371731E5,-5.67972E5,1.4687552E5,8.60116E5,-2.3657983E5,2.7046172E6,9.3835006E5],"split_indices":[12,3,14,0,0,2,2,9,1,0,9,14,0,6,9,0,0,0,0,0,0,0,0,0,0],"split_type":[0,0,0,0,0,0,0,0,0,0,0,0,0,0,0,0,0,0,0,0,0,0,0,0,0],"sum_hessian":[1.09E2,6E0,1.03E2,4E0,2E0,9.2E1,1.1E1,4.8E1,4.4E1,2E0,9E0,4.4E1,4E0,1.7E1,2.7E1,7E0,2E0,3.2E1,1.2E1,6E0,1.1E1,2.5E1,2E0,5E0,2E0],"tree_param":{"num_deleted":"0","num_feature":"15","num_nodes":"25","size_leaf_vector":"1"}},{"base_weights":[-2.9914758E6,-1.15035064E8,1.6475182E7,-2.4238666E7,-1.6235685E8,-3.2529525E6,5.921834E7,-8.611652E5,-8.0991745E6,-1.4318259E6,-2.0399555E8,-2.4968462E7,7.6755185E6,2.8434566E7,9.965475E7,-7.399766E4,-1.9597481E5,-1.396768E6,-4.8738145E6,-3.3003806E7,1.0559539E7,-7.0165385E6,3.0919638E7,5.53648E6,4.1330412E7,7.789653E5,1.07151544E8,-4.6221275E5,-1.1216509E6,-1.1938559E4,3.639232E5,-2.6252484E5,3.7183403E5,8.725023E5,3.2785484E5,-2.262848E5,5.043152E5,9.687078E5,7.740672E4,2.329596E6,8.68992E5],"categories":[],"categories_nodes":[],"categories_segments":[],"categories_sizes":[],"default_left":[0,0,0,0,0,0,0,0,0,0,0,0,0,0,0,0,0,0,0,0,0,0,0,0,0,0,0,0,0,0,0,0,0,0,0,0,0,0,0,0,0],"id":31,"left_children":[1,3,5,7,9,11,13,-1,15,-1,17,19,21,23,25,-1,-1,-1,-1,27,29,31,33,35,37,-1,39,-1,-1,-1,-1,-1,-1,-1,-1,-1,-1,-1,-1,-1,-1],"loss_changes":[2.5054223E17,6.9107707E16,8.283043E16,1.7774346E15,2.696865E16,1.6329223E16,3.575471E16,0E0,1.1302475E12,0E0,2.0258777E16,6.9145376E15,1.592613E16,5.3816874E15,1.742975E15,0E0,0E0,0E0,0E0,3.0420115E15,4.3685042E14,4.7813434E15,2.607145E15,2.9381775E15,3.0063762E15,0E0,1.4755102E15,0E0,0E0,0E0,0E0,0E0,0E0,0E0,0E0,0E0,0E0,0E0,0E0,0E0,0E0],"parents":[2147483647,0,0,1,1,2,2,3,3,4,4,5,5,6,6,8,8,10,10,11,11,12,12,13,13,14,14,19,19,20,20,21,21,22,22,23,23,24,24,26,26],"right_children":[2,4,6,8,10,12,14,-1,16,-1,18,20,22,24,26,-1,-1,-1,-1,28,30,32,34,36,38,-1,40,-1,-1,-1,-1,-1,-1,-1,-1,-1,-1,-1,-1,-1,-1],"split_conditions":[8E0,4E0,2.98E1,2E0,8.8508934E8,2.81E1,1.1403188E9,-8.611652E5,2.025E3,-1.4318259E6,6.07E1,2.025E3,1.089407E9,2.024E3,1.6E1,-7.399766E4,-1.9597481E5,-1.396768E6,-4.8738145E6,1.44E1,1.0889385E9,1.1061281E9,1.16E1,8.07E1,1.1098612E9,7.789653E5,1.2557162E9,-4.6221275E5,-1.1216509E6,-1.1938559E4,3.639232E5,-2.6252484E5,3.7183403E5,8.725023E5,3.2785484E5,-2.262848E5,5.043152E5,9.687078E5,7.740672E4,2.329596E6,8.68992E5],"split_indices":[0,0,2,0,13,2,14,0,1,0,5,1,12,1,0,0,0,0,0,7,12,14,7,5,14,0,12,0,0,0,0,0,0,0,0,0,0,0,0,0,0],"split_type":[0,0,0,0,0,0,0,0,0,0,0,0,0,0,0,0,0,0,0,0,0,0,0,0,0,0,0,0,0,0,0,0,0,0,0,0,0,0,0,0,0],"sum_hessian":[1.13E2,1.6E1,9.7E1,6E0,1E1,6.7E1,3E1,2E0,4E0,4E0,6E0,2.2E1,4.5E1,1.8E1,1.2E1,2E0,2E0,2E0,4E0,1.8E1,4E0,2.8E1,1.7E1,7E0,1.1E1,2E0,1E1,1.4E1,4E0,2E0,2E0,2.3E1,5E0,8E0,9E0,4E0,3E0,9E0,2E0,8E0,2E0],"tree_param":{"num_deleted":"0","num_feature":"15","num_nodes":"41","size_leaf_vector":"1"}},{"base_weights":[5.063486E6,-1.3531515E8,1.5917521E7,-3.2687432E6,-6.793212E5,-1.3630259E6,6.0059708E7,-5.075237E6,1.7884356E6,6.630648E7,-3.236224E5,-1.5769998E7,1.2675986E7,3.882282E7,8.905396E7,-2.2324681E5,-1.0264064E6,-2.0417878E5,3.6189672E5,1.0518716E6,3.5077375E5,1.3768474E6,2.447447E6],"categories":[],"categories_nodes":[],"categories_segments":[],"categories_sizes":[],"default_left":[0,0,0,0,0,0,0,0,0,0,0,0,0,0,0,0,0,0,0,0,0,0,0],"id":32,"left_children":[1,3,5,-1,-1,7,9,11,-1,13,-1,15,17,19,21,-1,-1,-1,-1,-1,-1,-1,-1],"loss_changes":[1.6975808E17,1.7249808E16,7.865039E16,0E0,0E0,2.5729764E16,1.4884424E16,1.4058592E16,0E0,1.3422632E16,0E0,6.962115E15,3.657008E15,3.1809623E15,1.0034504E15,0E0,0E0,0E0,0E0,0E0,0E0,0E0,0E0],"parents":[2147483647,0,0,1,1,2,2,5,5,6,6,7,7,9,9,11,11,12,12,13,13,14,14],"right_children":[2,4,6,-1,-1,8,10,12,-1,14,-1,16,18,20,22,-1,-1,-1,-1,-1,-1,-1,-1],"split_conditions":[8.8508934E8,1.19E1,1.1324718E9,-3.2687432E6,-6.793212E5,1.1819674E9,3E-1,1.06779085E9,1.7884356E6,1.1819674E9,-3.236224E5,2E-1,8E0,2.3E1,3.8E1,-2.2324681E5,-1.0264064E6,-2.0417878E5,3.6189672E5,1.0518716E6,3.5077375E5,1.3768474E6,2.447447E6],"split_indices":[12,7,12,0,0,13,9,12,0,12,0,9,7,0,4,0,0,0,0,0,0,0,0],"split_type":[0,0,0,0,0,0,0,0,0,0,0,0,0,0,0,0,0,0,0,0,0,0,0],"sum_hessian":[1.09E2,7E0,1.02E2,5E0,2E0,7.4E1,2.8E1,7.2E1,2E0,2.6E1,2E0,4.5E1,2.7E1,1.3E1,1.3E1,4.1E1,4E0,5E0,2.2E1,7E0,6E0,1E1,3E0],"tree_param":{"num_deleted":"0","num_feature":"15","num_nodes":"23","size_leaf_vector":"1"}},{"base_weights":[-2.0726702E6,5.631808E6,-4.1144632E6,-4.8589095E6,8.821401E7,-2.0543738E7,2.5232096E7,5.7110256E7,2.7228788E6,-1.915894E6,-1.381834E7,3.2544758E7,-1.3099019E7,4.3214675E5,1.2833438E6,-1.1493103E5,-7.422497E5,7.291169E5,-2.4399103E5,-5.7866156E5,4.1025598E4],"categories":[],"categories_nodes":[],"categories_segments":[],"categories_sizes":[],"default_left":[0,0,0,0,0,0,0,0,0,0,0,0,0,0,0,0,0,0,0,0,0],"id":33,"left_children":[1,3,-1,5,7,9,11,13,-1,-1,15,17,19,-1,-1,-1,-1,-1,-1,-1,-1],"loss_changes":[1.7218187E17,9.226135E16,0E0,4.5355727E16,1.0114399E16,3.056012E16,9.676286E15,8.6839085E14,0E0,0E0,1.0880229E16,5.344713E15,1.498694E15,0E0,0E0,0E0,0E0,0E0,0E0,0E0,0E0],"parents":[2147483647,0,0,1,1,3,3,4,4,5,5,6,6,7,7,10,10,11,11,12,12],"right_children":[2,4,-1,6,8,10,12,14,-1,-1,16,18,20,-1,-1,-1,-1,-1,-1,-1,-1],"split_conditions":[5E-1,1.1905295E9,-4.1144632E6,1.1014861E9,3.8E1,8.8508934E8,3.5E1,1.178579E9,2.7228788E6,-1.915894E6,1.23E1,2E-1,2.69E1,4.3214675E5,1.2833438E6,-1.1493103E5,-7.422497E5,7.291169E5,-2.4399103E5,-5.7866156E5,4.1025598E4],"split_indices":[9,14,0,12,4,12,0,13,0,0,7,9,2,0,0,0,0,0,0,0,0],"split_type":[0,0,0,0,0,0,0,0,0,0,0,0,0,0,0,0,0,0,0,0,0],"sum_hessian":[1.08E2,1.05E2,3E0,9.4E1,1.1E1,6.2E1,3.2E1,8E0,3E0,4E0,5.8E1,2.7E1,5E0,2E0,6E0,4.4E1,1.4E1,2.5E1,2E0,2E0,3E0],"tree_param":{"num_deleted":"0","num_feature":"15","num_nodes":"21","size_leaf_vector":"1"}},{"base_weights":[3.2109944E5,9.546577E6,-5.0230685E6,-6.2504645E6,6.5754868E7,-1.8852395E6,-8.076839E5,4.349692E7,9.801846E7,-4.0864055E6,1.7378824E6,3.195443E5,4.8618604E7,2.6874895E6,1.3686934E6,-8.410777E3,-9.8457344E5,1.0612002E6,3.2254462E5],"categories":[],"categories_nodes":[],"categories_segments":[],"categories_sizes":[],"default_left":[0,0,0,0,0,0,0,0,0,0,0,0,0,0,0,0,0,0,0],"id":34,"left_children":[1,3,-1,5,7,-1,9,11,13,15,-1,-1,17,-1,-1,-1,-1,-1,-1],"loss_changes":[2.622346E17,9.71948E16,0E0,4.112022E16,1.2971403E16,0E0,2.393417E16,1.4783643E15,4.840686E14,1.3218141E16,0E0,0E0,1.02028666E15,0E0,0E0,0E0,0E0,0E0,0E0],"parents":[2147483647,0,0,1,1,3,3,4,4,6,6,7,7,8,8,9,9,12,12],"right_children":[2,4,-1,6,8,-1,10,12,14,16,-1,-1,18,-1,-1,-1,-1,-1,-1],"split_conditions":[3E-1,1.1372191E9,-5.0230685E6,8.8508934E8,3.05E1,-1.8852395E6,1.1819674E9,2.86E1,1.0082E3,2E-1,1.7378824E6,3.195443E5,1.39E1,2.6874895E6,1.3686934E6,-8.410777E3,-9.8457344E5,1.0612002E6,3.2254462E5],"split_indices":[9,12,0,12,2,0,13,2,8,9,0,0,7,0,0,0,0,0,0],"split_type":[0,0,0,0,0,0,0,0,0,0,0,0,0,0,0,0,0,0,0],"sum_hessian":[1.11E2,1.08E2,3E0,8.5E1,2.3E1,4E0,8.1E1,1.5E1,8E0,7.9E1,2E0,3E0,1.2E1,2E0,6E0,7.4E1,5E0,1E1,2E0],"tree_param":{"num_deleted":"0","num_feature":"15","num_nodes":"19","size_leaf_vector":"1"}},{"base_weights":[6.4601025E5,9.826405E6,-4.947723E6,-1.4320308E7,4.0308136E7,-1.0104859E7,-1.8490142E6,2.8207428E7,1.0715409E8,-5.3442945E6,-4.470558E7,4.8177066E5,3.8030024E7,9.1780606E5,2.4496308E6,-2.234328E5,6.909127E5,-2.4258005E5,-1.1062082E6,-5.7083394E5,1.8281267E5,8.352273E5,-2.1432617E5],"categories":[],"categories_nodes":[],"categories_segments":[],"categories_sizes":[],"default_left":[0,0,0,0,0,0,0,0,0,0,0,0,0,0,0,0,0,0,0,0,0,0,0],"id":35,"left_children":[1,3,-1,5,7,9,-1,11,13,15,17,19,21,-1,-1,-1,-1,-1,-1,-1,-1,-1,-1],"loss_changes":[2.5518162E17,8.006885E16,0E0,1.9156439E16,3.580386E16,9.4795E15,0E0,1.1419867E16,9.52409E14,1.2705908E16,1.7474225E15,3.2766118E15,6.0860975E15,0E0,0E0,0E0,0E0,0E0,0E0,0E0,0E0,0E0,0E0],"parents":[2147483647,0,0,1,1,3,3,4,4,5,5,7,7,8,8,9,9,10,10,11,11,12,12],"right_children":[2,4,-1,6,8,10,-1,12,14,16,18,20,22,-1,-1,-1,-1,-1,-1,-1,-1,-1,-1],"split_conditions":[5E-1,1.089407E9,-4.947723E6,5E-1,3.08E1,2E-1,-1.8490142E6,2.82E1,6.73E1,1.1310552E9,2.024E3,2.69E1,2E-1,9.1780606E5,2.4496308E6,-2.234328E5,6.909127E5,-2.4258005E5,-1.1062082E6,-5.7083394E5,1.8281267E5,8.352273E5,-2.1432617E5],"split_indices":[9,12,0,11,2,9,0,2,5,14,1,2,9,0,0,0,0,0,0,0,0,0,0],"split_type":[0,0,0,0,0,0,0,0,0,0,0,0,0,0,0,0,0,0,0,0,0,0,0],"sum_hessian":[1.1E2,1.07E2,3E0,6E1,4.7E1,5.8E1,2E0,4.1E1,6E0,5.2E1,6E0,1.1E1,3E1,2E0,4E0,4.6E1,6E0,2E0,4E0,2E0,9E0,2.8E1,2E0],"tree_param":{"num_deleted":"0","num_feature":"15","num_nodes":"23","size_leaf_vector":"1"}},{"base_weights":[1.4417105E6,8.917542E6,-3.9031855E6,-1.4801345E7,4.4848284E7,-1.6694195E6,-8.832187E6,2.9057014E7,8.190505E7,-2.0398176E6,-5.272761E7,1.6103518E7,4.1800508E7,9.396165E7,2.8829353E5,-1.9757661E5,5.1133428E5,-1.2863965E6,-2.3934592E5,7.414592E5,1.7923995E5,9.4931575E5,6.634923E4,1.1933459E6,2.6097272E6],"categories":[],"categories_nodes":[],"categories_segments":[],"categories_sizes":[],"default_left":[0,0,0,0,0,0,0,0,0,0,0,0,0,0,0,0,0,0,0,0,0,0,0,0,0],"id":36,"left_children":[1,3,-1,5,7,-1,9,11,13,15,17,19,21,23,-1,-1,-1,-1,-1,-1,-1,-1,-1,-1,-1],"loss_changes":[1.6047396E17,9.014872E16,0E0,2.5496363E16,2.2197362E16,0E0,1.7781678E16,4.444123E15,8.410027E15,1.1722193E16,3.0102867E15,2.2135647E15,3.1127926E15,4.740158E15,0E0,0E0,0E0,0E0,0E0,0E0,0E0,0E0,0E0,0E0,0E0],"parents":[2147483647,0,0,1,1,3,3,4,4,6,6,7,7,8,8,9,9,10,10,11,11,12,12,13,13],"right_children":[2,4,-1,6,8,-1,10,12,14,16,18,20,22,24,-1,-1,-1,-1,-1,-1,-1,-1,-1,-1,-1],"split_conditions":[5E-1,1.1021192E9,-3.9031855E6,8.7802374E8,3.7E1,-1.6694195E6,2E-1,1.1372191E9,2E-1,1.1061281E9,2.41E1,7.76E1,1.2382019E9,3.8E1,2.8829353E5,-1.9757661E5,5.1133428E5,-1.2863965E6,-2.3934592E5,7.414592E5,1.7923995E5,9.4931575E5,6.634923E4,1.1933459E6,2.6097272E6],"split_indices":[9,12,0,12,4,0,9,12,9,14,3,5,13,4,0,0,0,0,0,0,0,0,0,0,0],"split_type":[0,0,0,0,0,0,0,0,0,0,0,0,0,0,0,0,0,0,0,0,0,0,0,0,0],"sum_hessian":[1.07E2,1.04E2,3E0,6.3E1,4.1E1,4E0,5.9E1,3E1,1.1E1,5.2E1,7E0,1.6E1,1.4E1,9E0,2E0,4.1E1,1.1E1,5E0,2E0,3E0,1.3E1,1.2E1,2E0,6E0,3E0],"tree_param":{"num_deleted":"0","num_feature":"15","num_nodes":"25","size_leaf_vector":"1"}},{"base_weights":[2.7454038E5,-1.3305866E8,9.605119E6,-3.4410665E6,-1.2159862E6,-1.632771E6,7.87545E7,1.7403949E6,-4.7460576E7,8.608308E7,4.63773E5,-1.1146617E7,1.312342E7,-1.2467014E6,-2.3615445E5,2.3032505E6,1.2718819E6,-6.310992E5,-1.13924E5,-1.623057E5,4.6610647E5],"categories":[],"categories_nodes":[],"categories_segments":[],"categories_sizes":[],"default_left":[0,0,0,0,0,0,0,0,0,0,0,0,0,0,0,0,0,0,0,0,0],"id":37,"left_children":[1,3,5,-1,-1,7,9,11,13,15,-1,17,19,-1,-1,-1,-1,-1,-1,-1,-1],"loss_changes":[1.3315008E17,9.263394E15,7.78379E16,0E0,0E0,1.3531477E16,3.7049075E15,1.2175122E16,2.4458733E15,5.2395165E14,0E0,4.158382E15,9.704151E15,0E0,0E0,0E0,0E0,0E0,0E0,0E0,0E0],"parents":[2147483647,0,0,1,1,2,2,5,5,6,6,7,7,8,8,9,9,11,11,12,12],"right_children":[2,4,6,-1,-1,8,10,12,14,16,-1,18,20,-1,-1,-1,-1,-1,-1,-1,-1],"split_conditions":[8.837024E8,6.69E1,1.1623363E9,-3.4410665E6,-1.2159862E6,2E-1,2.4E1,2.024E3,2.41E1,1.0082E3,4.63773E5,1.5E1,3.4E1,-1.2467014E6,-2.3615445E5,2.3032505E6,1.2718819E6,-6.310992E5,-1.13924E5,-1.623057E5,4.6610647E5],"split_indices":[12,5,12,0,0,9,0,1,3,8,0,0,4,0,0,0,0,0,0,0,0],"split_type":[0,0,0,0,0,0,0,0,0,0,0,0,0,0,0,0,0,0,0,0,0],"sum_hessian":[1.05E2,6E0,9.9E1,3E0,3E0,8.6E1,1.3E1,8.1E1,5E0,1.1E1,2E0,3.8E1,4.3E1,3E0,2E0,3E0,8E0,7E0,3.1E1,1.4E1,2.9E1],"tree_param":{"num_deleted":"0","num_feature":"15","num_nodes":"21","size_leaf_vector":"1"}},{"base_weights":[-2.0748138E6,8.2503145E6,-4.534953E6,-2.6700866E5,8.415619E7,-1.9113418E7,1.7845562E7,2.2323858E6,8.5334144E5,-6.2518195E6,-3.121048E7,-5.1953165E6,3.414735E7,1.9805545E5,-3.9304106E5,-1.051976E6,-3.6102678E5,-3.9094016E5,1.2488172E5,7.5537944E5,-2.2073769E5],"categories":[],"categories_nodes":[],"categories_segments":[],"categories_sizes":[],"default_left":[0,0,0,0,0,0,0,0,0,0,0,0,0,0,0,0,0,0,0,0,0],"id":38,"left_children":[1,3,-1,5,7,9,11,-1,-1,13,15,17,19,-1,-1,-1,-1,-1,-1,-1,-1],"loss_changes":[2.640054E17,7.04926E16,0E0,3.4135423E16,7.7711506E15,7.428669E15,1.9333394E16,0E0,0E0,5.606493E15,6.086819E15,3.7338985E15,5.3260537E15,0E0,0E0,0E0,0E0,0E0,0E0,0E0,0E0],"parents":[2147483647,0,0,1,1,3,3,4,4,5,5,6,6,9,9,10,10,11,11,12,12],"right_children":[2,4,-1,6,8,10,12,-1,-1,14,16,18,20,-1,-1,-1,-1,-1,-1,-1,-1],"split_conditions":[5E-1,1.192829E9,-4.534953E6,2.85E1,2.1E1,1.0093E3,2.024E3,2.2323858E6,8.5334144E5,8.46E1,1.0107E3,2.21E1,2E-1,1.9805545E5,-3.9304106E5,-1.051976E6,-3.6102678E5,-3.9094016E5,1.2488172E5,7.5537944E5,-2.2073769E5],"split_indices":[9,14,0,2,0,8,1,0,0,5,8,6,9,0,0,0,0,0,0,0,0],"split_type":[0,0,0,0,0,0,0,0,0,0,0,0,0,0,0,0,0,0,0,0,0],"sum_hessian":[1.12E2,1.08E2,4E0,9.8E1,1E1,4.8E1,5E1,5E0,5E0,2.4E1,2.4E1,2.1E1,2.9E1,1.1E1,1.3E1,8E0,1.6E1,9E0,1.2E1,2.7E1,2E0],"tree_param":{"num_deleted":"0","num_feature":"15","num_nodes":"21","size_leaf_vector":"1"}},{"base_weights":[2.6168602E5,8.506695E6,-4.365929E6,-5.1035625E6,6.070511E7,-7.789129E7,4.193112E5,2.6855854E7,8.667484E7,-1.8910345E6,-5.94272E5,-1.338816E7,1.7667002E7,7.469752E5,3.104874E5,1.0444765E8,5.0034622E5,-1.9344673E5,-9.8114525E5,-3.161034E4,7.4004656E5,2.348201E6,7.877231E5],"categories":[],"categories_nodes":[],"categories_segments":[],"categories_sizes":[],"default_left":[0,0,0,0,0,0,0,0,0,0,0,0,0,0,0,0,0,0,0,0,0,0,0],"id":39,"left_children":[1,3,-1,5,7,9,11,13,15,-1,-1,17,19,-1,-1,21,-1,-1,-1,-1,-1,-1,-1],"loss_changes":[1.982765E17,7.56158E16,0E0,3.420244E16,1.7011498E16,2.006497E15,1.928829E16,7.2808715E14,1.0536938E16,0E0,0E0,5.4898057E15,1.3456138E16,0E0,0E0,2.9658467E15,0E0,0E0,0E0,0E0,0E0,0E0,0E0],"parents":[2147483647,0,0,1,1,3,3,4,4,5,5,6,6,7,7,8,8,11,11,12,12,15,15],"right_children":[2,4,-1,6,8,10,12,14,16,-1,-1,18,20,-1,-1,22,-1,-1,-1,-1,-1,-1,-1],"split_conditions":[5E-1,1.1331826E9,-4.365929E6,8.8508934E8,2.94E1,2.79E1,2.88E1,1.16E1,2E-1,-1.8910345E6,-5.94272E5,2E-1,2.024E3,7.469752E5,3.104874E5,2.1E1,5.0034622E5,-1.9344673E5,-9.8114525E5,-3.161034E4,7.4004656E5,2.348201E6,7.877231E5],"split_indices":[9,14,0,12,2,2,2,7,9,0,0,9,1,0,0,0,0,0,0,0,0,0,0],"split_type":[0,0,0,0,0,0,0,0,0,0,0,0,0,0,0,0,0,0,0,0,0,0,0],"sum_hessian":[1.08E2,1.05E2,3E0,8.4E1,2.1E1,5E0,7.9E1,1E1,1.1E1,3E0,2E0,4.4E1,3.5E1,4E0,6E0,8E0,3E0,4.1E1,3E0,1.8E1,1.7E1,6E0,2E0],"tree_param":{"num_deleted":"0","num_feature":"15","num_nodes":"23","size_leaf_vector":"1"}},{"base_weights":[-4.6518225E6,5.3438005E6,-4.392538E6,-1.2919704E7,3.3251882E7,-1.8626694E6,-7.621692E6,-5.421664E6,4.092234E7,-1.4227222E6,-5.006177E7,1.0514918E7,-4.797395E5,4.4785604E7,-3.30042E5,-1.3392939E5,7.2900294E5,-1.2212945E6,-2.2737194E5,8.430421E4,2.6619306E5,5.0450794E5,1.1138619E6],"categories":[],"categories_nodes":[],"categories_segments":[],"categories_sizes":[],"default_left":[0,0,0,0,0,0,0,0,0,0,0,0,0,0,0,0,0,0,0,0,0,0,0],"id":40,"left_children":[1,3,-1,5,7,-1,9,11,13,15,17,19,-1,21,-1,-1,-1,-1,-1,-1,-1,-1,-1],"loss_changes":[2.4184033E17,5.5477135E16,0E0,2.733842E16,1.2977549E16,0E0,1.6503115E16,2.619162E15,8.7255095E15,1.1429077E16,2.7116942E15,3.192711E13,0E0,5.8491055E15,0E0,0E0,0E0,0E0,0E0,0E0,0E0,0E0,0E0],"parents":[2147483647,0,0,1,1,3,3,4,4,6,6,7,7,8,8,9,9,10,10,11,11,13,13],"right_children":[2,4,-1,6,8,-1,10,12,14,16,18,20,-1,22,-1,-1,-1,-1,-1,-1,-1,-1,-1],"split_conditions":[5E-1,1.1061281E9,-4.392538E6,8.7802374E8,3.4E1,-1.8626694E6,2E-1,3.4E1,3E-1,1.1331826E9,2.41E1,1.023E2,-4.797395E5,2.41E1,-3.30042E5,-1.3392939E5,7.2900294E5,-1.2212945E6,-2.2737194E5,8.430421E4,2.6619306E5,5.0450794E5,1.1138619E6],"split_indices":[9,12,0,12,4,0,9,0,9,14,3,6,0,3,0,0,0,0,0,0,0,0,0],"split_type":[0,0,0,0,0,0,0,0,0,0,0,0,0,0,0,0,0,0,0,0,0,0,0],"sum_hessian":[1.11E2,1.07E2,4E0,6.5E1,4.2E1,3E0,6.2E1,7E0,3.5E1,5.5E1,7E0,4E0,3E0,3.3E1,2E0,4.9E1,6E0,5E0,2E0,2E0,2E0,1.3E1,2E1],"tree_param":{"num_deleted":"0","num_feature":"15","num_nodes":"23","size_leaf_vector":"1"}},{"base_weights":[-4.452817E6,-1.0129031E8,5.9322825E6,-4.2137815E6,-3.392964E7,-1.3592471E7,3.1399574E7,-1.1746739E6,1.111568E5,-8.1362615E6,-1.7316255E6,-3.5507628E6,3.9052372E7,-2.5685388E7,-1.0893768E6,-5.485875E5,7.1901805E6,2.2059648E7,4.7337612E7,-4.2989117E4,-6.1902825E5,-2.833617E5,3.6416194E5,-7.489792E4,2.462638E5,5.473974E5,1.4054553E5,3.8626144E5,1.1548212E6],"categories":[],"categories_nodes":[],"categories_segments":[],"categories_sizes":[],"default_left":[0,0,0,0,0,0,0,0,0,0,0,0,0,0,0,0,0,0,0,0,0,0,0,0,0,0,0,0,0],"id":41,"left_children":[1,3,5,-1,7,9,11,-1,-1,13,-1,15,17,19,21,-1,23,25,27,-1,-1,-1,-1,-1,-1,-1,-1,-1,-1],"loss_changes":[1.1424126E17,7.3912316E16,5.164279E16,0E0,8.162029E15,2.279184E16,1.2174716E16,0E0,0E0,6.8973535E15,0E0,2.5055317E15,4.164933E15,1.9165239E15,1.0605801E16,0E0,4.3825514E14,9.2521756E14,5.882095E15,0E0,0E0,0E0,0E0,0E0,0E0,0E0,0E0,0E0,0E0],"parents":[2147483647,0,0,1,1,2,2,4,4,5,5,6,6,9,9,11,11,12,12,13,13,14,14,16,16,17,17,18,18],"right_children":[2,4,6,-1,8,10,12,-1,-1,14,-1,16,18,20,22,-1,24,26,28,-1,-1,-1,-1,-1,-1,-1,-1,-1,-1],"split_conditions":[9.688512E8,6.69E1,1.103873E9,-4.2137815E6,8.8508934E8,1.0929594E9,3.4E1,-1.1746739E6,1.111568E5,2.36E1,-1.7316255E6,1.07813E9,1.1320095E9,7.5E0,2.024E3,-5.485875E5,8.44E1,1.1266538E9,6.91E1,-4.2989117E4,-6.1902825E5,-2.833617E5,3.6416194E5,-7.489792E4,2.462638E5,5.473974E5,1.4054553E5,3.8626144E5,1.1548212E6],"split_indices":[12,5,12,0,12,12,4,0,0,3,0,13,12,7,1,0,5,12,5,0,0,0,0,0,0,0,0,0,0],"split_type":[0,0,0,0,0,0,0,0,0,0,0,0,0,0,0,0,0,0,0,0,0,0,0,0,0,0,0,0,0],"sum_hessian":[1.12E2,1E1,1.02E2,3E0,7E0,5.8E1,4.4E1,4E0,3E0,5.5E1,3E0,8E0,3.6E1,1.5E1,4E1,2E0,6E0,1.3E1,2.3E1,3E0,1.2E1,2.4E1,1.6E1,2E0,4E0,9E0,4E0,7E0,1.6E1],"tree_param":{"num_deleted":"0","num_feature":"15","num_nodes":"29","size_leaf_vector":"1"}},{"base_weights":[-3.0617262E6,6.881148E6,-4.264766E6,-1.2776604E7,3.83575E7,-5.388107E7,-3.5760548E6,5.9274116E7,1.101857E7,-1.5749565E6,-3.177937E5,5.161949E6,-2.519756E7,4.5155012E7,1.01071896E8,-7.684096E6,2.0241654E7,-1.4781176E4,6.6173125E5,-8.556106E5,-2.663232E5,2.7071806E5,1.004752E6,6.96838E5,2.6722252E6,1.9773952E5,-4.6668288E5,6.4605475E5,1.0577809E5],"categories":[],"categories_nodes":[],"categories_segments":[],"categories_sizes":[],"default_left":[0,0,0,0,0,0,0,0,0,0,0,0,0,0,0,0,0,0,0,0,0,0,0,0,0,0,0,0,0],"id":42,"left_children":[1,3,-1,5,7,9,11,13,15,-1,-1,17,19,21,23,25,27,-1,-1,-1,-1,-1,-1,-1,-1,-1,-1,-1,-1],"loss_changes":[2.3134085E17,6.6078037E16,0E0,2.4767442E16,2.279224E16,1.0085389E16,1.0521152E16,9.009476E15,3.4329674E15,0E0,0E0,6.615787E15,2.7728942E15,2.3734247E15,6.1201437E15,2.155621E15,2.1736561E15,0E0,0E0,0E0,0E0,0E0,0E0,0E0,0E0,0E0,0E0,0E0,0E0],"parents":[2147483647,0,0,1,1,3,3,4,4,5,5,6,6,7,7,8,8,11,11,12,12,13,13,14,14,15,15,16,16],"right_children":[2,4,-1,6,8,10,12,14,16,-1,-1,18,20,22,24,26,28,-1,-1,-1,-1,-1,-1,-1,-1,-1,-1,-1,-1],"split_conditions":[5E-1,1.1021192E9,-4.264766E6,8E0,2.4E1,1.0107E3,8.47E1,1.2018591E9,3.4E1,-1.5749565E6,-3.177937E5,2.025E3,1.03794374E9,1.008E3,3.8E1,3.4E1,7.76E1,-1.4781176E4,6.6173125E5,-8.556106E5,-2.663232E5,2.7071806E5,1.004752E6,6.96838E5,2.6722252E6,1.9773952E5,-4.6668288E5,6.4605475E5,1.0577809E5],"split_indices":[9,12,0,0,0,8,5,13,4,0,0,1,14,8,4,0,5,0,0,0,0,0,0,0,0,0,0,0,0],"split_type":[0,0,0,0,0,0,0,0,0,0,0,0,0,0,0,0,0,0,0,0,0,0,0,0,0,0,0,0,0],"sum_hessian":[1.09E2,1.05E2,4E0,6.5E1,4E1,1.1E1,5.4E1,2.2E1,1.8E1,6E0,5E0,3.9E1,1.5E1,1.8E1,4E0,6E0,1.2E1,3.3E1,6E0,5E0,1E1,3E0,1.5E1,2E0,2E0,3E0,3E0,6E0,6E0],"tree_param":{"num_deleted":"0","num_feature":"15","num_nodes":"29","size_leaf_vector":"1"}},{"base_weights":[-5.5587295E6,4.5088935E6,-4.19653E6,-4.1287478E6,7.634109E7,-3.1174254E7,6.9978795E6,4.9642066E5,8.50321E7,-1.7782895E6,-2.0251954E7,-6.842994E6,1.9452452E7,1.9759918E6,8.624563E5,-1.6400589E5,-1.288164E6,-3.8944522E5,-2.1089725E4,1.7700516E5,8.355989E5],"categories":[],"categories_nodes":[],"categories_segments":[],"categories_sizes":[],"default_left":[0,0,0,0,0,0,0,0,0,0,0,0,0,0,0,0,0,0,0,0,0],"id":43,"left_children":[1,3,-1,5,7,9,11,-1,13,-1,15,17,19,-1,-1,-1,-1,-1,-1,-1,-1],"loss_changes":[2.1893414E17,6.3602186E16,0E0,2.7903275E16,2.814784E15,1.5227021E16,1.1510336E16,0E0,9.323644E14,0E0,1.2243581E16,2.3188145E15,7.915451E15,0E0,0E0,0E0,0E0,0E0,0E0,0E0,0E0],"parents":[2147483647,0,0,1,1,3,3,4,4,5,5,6,6,8,8,10,10,11,11,12,12],"right_children":[2,4,-1,6,8,10,12,-1,14,-1,16,18,20,-1,-1,-1,-1,-1,-1,-1,-1],"split_conditions":[5E-1,1.1819674E9,-4.19653E6,2.81E1,2.41E1,8.7802374E8,2.024E3,4.9642066E5,7.81E1,-1.7782895E6,2E-1,1.02573664E9,2.97E1,1.9759918E6,8.624563E5,-1.6400589E5,-1.288164E6,-3.8944522E5,-2.1089725E4,1.7700516E5,8.355989E5],"split_indices":[9,12,0,2,3,12,1,0,5,0,9,14,2,0,0,0,0,0,0,0,0],"split_type":[0,0,0,0,0,0,0,0,0,0,0,0,0,0,0,0,0,0,0,0,0],"sum_hessian":[1.05E2,1.01E2,4E0,9.1E1,1E1,2.6E1,6.5E1,2E0,8E0,3E0,2.3E1,3.1E1,3.4E1,5E0,3E0,1.9E1,4E0,9E0,2.2E1,2.4E1,1E1],"tree_param":{"num_deleted":"0","num_feature":"15","num_nodes":"21","size_leaf_vector":"1"}},{"base_weights":[-1.3977292E5,6.310163E6,-4.3878195E6,-1.4643929E7,3.6593244E7,-7.202121E7,-8.234865E6,2.55347E7,8.040022E7,-1.751615E6,-5.4536144E5,-2.5054975E6,-4.7982508E7,4.7036244E7,1.3719981E7,2.2685522E6,7.5796525E5,-2.722432E5,2.2249181E5,-1.2114606E6,-2.2008278E5,3.4918975E5,1.0991044E6,-3.741345E5,4.228132E5],"categories":[],"categories_nodes":[],"categories_segments":[],"categories_sizes":[],"default_left":[0,0,0,0,0,0,0,0,0,0,0,0,0,0,0,0,0,0,0,0,0,0,0,0,0],"id":44,"left_children":[1,3,-1,5,7,9,11,13,15,-1,-1,17,19,21,23,-1,-1,-1,-1,-1,-1,-1,-1,-1,-1],"loss_changes":[1.4845666E17,6.526043E16,0E0,2.1838728E16,1.8293541E16,1.7898718E15,1.2632596E16,8.2458776E15,6.9311194E15,0E0,0E0,7.720669E15,2.592483E15,1.8511223E15,6.170549E15,0E0,0E0,0E0,0E0,0E0,0E0,0E0,0E0,0E0,0E0],"parents":[2147483647,0,0,1,1,3,3,4,4,5,5,6,6,7,7,8,8,11,11,12,12,13,13,14,14],"right_children":[2,4,-1,6,8,10,12,14,16,-1,-1,18,20,22,24,-1,-1,-1,-1,-1,-1,-1,-1,-1,-1],"split_conditions":[5E-1,1.1021192E9,-4.3878195E6,8.8508934E8,1.2158002E9,2.36E1,2E-1,1.8E1,2.1E1,-1.751615E6,-5.4536144E5,2.024E3,2.41E1,2.41E1,7.23E1,2.2685522E6,7.5796525E5,-2.722432E5,2.2249181E5,-1.2114606E6,-2.2008278E5,3.4918975E5,1.0991044E6,-3.741345E5,4.228132E5],"split_indices":[9,12,0,12,14,3,9,0,0,0,0,1,3,3,5,0,0,0,0,0,0,0,0,0,0],"split_type":[0,0,0,0,0,0,0,0,0,0,0,0,0,0,0,0,0,0,0,0,0,0,0,0,0],"sum_hessian":[1.03E2,1.01E2,2E0,6E1,4.1E1,5E0,5.5E1,3.4E1,7E0,3E0,2E0,4.9E1,6E0,1.1E1,2.3E1,3E0,4E0,2.7E1,2.2E1,4E0,2E0,3E0,8E0,4E0,1.9E1],"tree_param":{"num_deleted":"0","num_feature":"15","num_nodes":"25","size_leaf_vector":"1"}},{"base_weights":[1.2461238E6,-1.03748296E8,1.4780391E7,-2.1535296E7,-1.593954E8,5.4352545E6,8.3950024E7,-6.9614806E5,-1.23947836E5,-1.0450871E6,-3.8360185E6,-1.1670407E7,1.878577E7,2.1066678E6,7.444659E5,-2.6888584E7,-1.2380995E6,1.2785102E6,2.8663934E7,-3.0957375E5,-6.987481E5,-1.4518642E5,4.3780328E5,-5.331874E5,1.2873912E5,1.0450768E5,7.114043E5],"categories":[],"categories_nodes":[],"categories_segments":[],"categories_sizes":[],"default_left":[0,0,0,0,0,0,0,0,0,0,0,0,0,0,0,0,0,0,0,0,0,0,0,0,0,0,0],"id":45,"left_children":[1,3,5,7,9,11,13,-1,-1,-1,-1,15,17,-1,-1,19,21,23,25,-1,-1,-1,-1,-1,-1,-1,-1],"loss_changes":[1.493198E17,5.1466344E16,5.9658882E16,1.0056824E15,1.4281299E16,1.9173896E16,7.070066E15,0E0,0E0,0E0,0E0,5.840856E15,8.0915154E15,0E0,0E0,8.3675734E14,3.3618967E15,2.765694E15,4.670326E15,0E0,0E0,0E0,0E0,0E0,0E0,0E0,0E0],"parents":[2147483647,0,0,1,1,2,2,3,3,4,4,5,5,6,6,11,11,12,12,15,15,16,16,17,17,18,18],"right_children":[2,4,6,8,10,12,14,-1,-1,-1,-1,16,18,-1,-1,20,22,24,26,-1,-1,-1,-1,-1,-1,-1,-1],"split_conditions":[7E0,4E0,1.1905295E9,2E0,6.49E1,1.06779085E9,2.1E1,-6.9614806E5,-1.23947836E5,-1.0450871E6,-3.8360185E6,2.82E1,2.83E1,2.1066678E6,7.444659E5,3.1E1,1.076314E9,2.69E1,2.024E3,-3.0957375E5,-6.987481E5,-1.4518642E5,4.3780328E5,-5.331874E5,1.2873912E5,1.0450768E5,7.114043E5],"split_indices":[0,0,14,0,5,12,0,0,0,0,0,2,2,0,0,0,14,2,1,0,0,0,0,0,0,0,0],"split_type":[0,0,0,0,0,0,0,0,0,0,0,0,0,0,0,0,0,0,0,0,0,0,0,0,0,0,0],"sum_hessian":[1.03E2,1.1E1,9.2E1,5E0,6E0,8.2E1,1E1,2E0,3E0,2E0,4E0,3.6E1,4.6E1,6E0,4E0,1.4E1,2.2E1,1.7E1,2.9E1,7E0,7E0,1.8E1,4E0,2E0,1.5E1,7E0,2.2E1],"tree_param":{"num_deleted":"0","num_feature":"15","num_nodes":"27","size_leaf_vector":"1"}},{"base_weights":[-2.0066401E6,5.369629E6,-3.9395222E6,-6.2504505E6,4.7574716E7,-6.9532136E7,-1.3651265E6,2.075913E7,6.3330516E7,-1.6993875E6,-5.154355E5,-1.4990339E7,1.4506475E7,7.208064E5,9.061431E6,7.321753E7,4.0617216E5,-2.1892473E5,-1.0336755E6,-9.9868984E4,5.920269E5,-1.7111381E5,3.5638834E5,1.6453434E6,7.362771E5],"categories":[],"categories_nodes":[],"categories_segments":[],"categories_sizes":[],"default_left":[0,0,0,0,0,0,0,0,0,0,0,0,0,0,0,0,0,0,0,0,0,0,0,0,0],"id":46,"left_children":[1,3,-1,5,7,9,11,13,15,-1,-1,17,19,-1,21,23,-1,-1,-1,-1,-1,-1,-1,-1,-1],"loss_changes":[1.5781574E17,5.2282572E16,0E0,2.587381E16,8.402833E15,1.8634231E15,1.7301519E16,1.4609704E15,4.4680674E15,0E0,0E0,5.815114E15,1.1038719E16,0E0,1.232491E15,5.952696E14,0E0,0E0,0E0,0E0,0E0,0E0,0E0,0E0,0E0],"parents":[2147483647,0,0,1,1,3,3,4,4,5,5,6,6,7,7,8,8,11,11,12,12,14,14,15,15],"right_children":[2,4,-1,6,8,10,12,14,16,-1,-1,18,20,-1,22,24,-1,-1,-1,-1,-1,-1,-1,-1,-1],"split_conditions":[5E-1,1.1403188E9,-3.9395222E6,8.8508934E8,2.94E1,2.79E1,2.88E1,1.16E1,2E-1,-1.6993875E6,-5.154355E5,2E-1,2.024E3,7.208064E5,2.78E1,2.1E1,4.0617216E5,-2.1892473E5,-1.0336755E6,-9.9868984E4,5.920269E5,-1.7111381E5,3.5638834E5,1.6453434E6,7.362771E5],"split_indices":[9,14,0,12,2,2,2,7,9,0,0,9,1,0,2,0,0,0,0,0,0,0,0,0,0],"split_type":[0,0,0,0,0,0,0,0,0,0,0,0,0,0,0,0,0,0,0,0,0,0,0,0,0],"sum_hessian":[1.08E2,1.05E2,3E0,8.3E1,2.2E1,5E0,7.8E1,9E0,1.3E1,3E0,2E0,4.2E1,3.6E1,3E0,6E0,1E1,3E0,3.9E1,3E0,1.6E1,2E1,2E0,4E0,7E0,3E0],"tree_param":{"num_deleted":"0","num_feature":"15","num_nodes":"25","size_leaf_vector":"1"}},{"base_weights":[-1.7377228E6,6.0394135E6,-4.2257195E6,-1.4366607E7,3.3855496E7,-5.8542304E7,-9.549007E6,2.6683486E7,2.5551965E6,-1.4478242E6,-4.1125972E5,-6.0374785E6,-3.8976012E7,1.611673E7,4.817534E7,-2.880629E5,1.1000971E5,-2.155456E5,-1.0076211E6,-1.748176E4,4.2217612E5,1.1421666E6,-7.230123E4],"categories":[],"categories_nodes":[],"categories_segments":[],"categories_sizes":[],"default_left":[0,0,0,0,0,0,0,0,0,0,0,0,0,0,0,0,0,0,0,0,0,0,0],"id":47,"left_children":[1,3,-1,5,7,9,11,13,-1,-1,-1,15,17,19,21,-1,-1,-1,-1,-1,-1,-1,-1],"loss_changes":[1.821711E17,6.1788873E16,0E0,1.2848692E16,2.7571139E16,1.6672548E15,5.7580415E15,9.215939E15,0E0,0E0,0E0,5.1949315E15,1.3866764E15,2.6478527E15,6.6834523E15,0E0,0E0,0E0,0E0,0E0,0E0,0E0,0E0],"parents":[2147483647,0,0,1,1,3,3,4,4,5,5,6,6,7,7,11,11,12,12,13,13,14,14],"right_children":[2,4,-1,6,8,10,12,14,-1,-1,-1,16,18,20,22,-1,-1,-1,-1,-1,-1,-1,-1],"split_conditions":[5E-1,1.089407E9,-4.2257195E6,9.316408E8,3.17E1,7E0,2E-1,1.1819674E9,2.5551965E6,-1.4478242E6,-4.1125972E5,2.024E3,2.024E3,2.8E1,2E-1,-2.880629E5,1.1000971E5,-2.155456E5,-1.0076211E6,-1.748176E4,4.2217612E5,1.1421666E6,-7.230123E4],"split_indices":[9,12,0,12,2,0,9,12,0,0,0,1,1,2,9,0,0,0,0,0,0,0,0],"split_type":[0,0,0,0,0,0,0,0,0,0,0,0,0,0,0,0,0,0,0,0,0,0,0],"sum_hessian":[1.1E2,1.07E2,3E0,6.2E1,4.5E1,5E0,5.7E1,4.3E1,2E0,3E0,2E0,5.2E1,5E0,3E1,1.3E1,3E1,2.2E1,2E0,3E0,7E0,2.3E1,1.1E1,2E0],"tree_param":{"num_deleted":"0","num_feature":"15","num_nodes":"23","size_leaf_vector":"1"}},{"base_weights":[1.7291815E6,-6.723629E7,1.3333147E7,-2.474308E6,-3.5451572E7,4.1721718E6,6.2111784E7,-1.1326352E7,-1.4967824E6,-7.2244175E6,1.7728874E7,1.7746592E5,7.582471E7,-6.5964925E5,1.3894294E6,-2.6610502E7,5.1291872E5,3.4591572E6,2.412503E7,2.148201E6,8.48633E5,-1.5704608E5,2.6497194E5,-5.968369E5,-1.3938389E5,6.155604E4,-4.890385E5,-6.268768E4,2.6633984E5,5.334637E5,-5.206272E4],"categories":[],"categories_nodes":[],"categories_segments":[],"categories_sizes":[],"default_left":[0,0,0,0,0,0,0,0,0,0,0,0,0,0,0,0,0,0,0,0,0,0,0,0,0,0,0,0,0,0,0],"id":48,"left_children":[1,3,5,-1,7,9,11,13,-1,15,17,-1,19,-1,21,23,25,27,29,-1,-1,-1,-1,-1,-1,-1,-1,-1,-1,-1,-1],"loss_changes":[8.332459E16,2.254168E16,3.951139E16,0E0,9.604914E15,1.1870093E16,9.547957E15,2.2488218E15,0E0,6.313508E15,3.1110445E15,0E0,7.0444593E15,0E0,7.616277E14,5.5363954E14,2.0602475E15,8.2171704E14,1.7040165E15,0E0,0E0,0E0,0E0,0E0,0E0,0E0,0E0,0E0,0E0,0E0,0E0],"parents":[2147483647,0,0,1,1,2,2,4,4,5,5,6,6,7,7,9,9,10,10,12,12,14,14,15,15,16,16,17,17,18,18],"right_children":[2,4,6,-1,8,10,12,14,-1,16,18,-1,20,-1,22,24,26,28,30,-1,-1,-1,-1,-1,-1,-1,-1,-1,-1,-1,-1],"split_conditions":[8E0,8.837024E8,3.7E1,-2.474308E6,6E0,1.089407E9,1.1094643E9,2E0,-1.4967824E6,2.8E1,2.82E1,1.7746592E5,1.1923309E9,-6.5964925E5,1.0407202E9,9.17E1,1.0874053E9,2.025E3,1.2164686E9,2.148201E6,8.48633E5,-1.5704608E5,2.6497194E5,-5.968369E5,-1.3938389E5,6.155604E4,-4.890385E5,-6.268768E4,2.6633984E5,5.334637E5,-5.206272E4],"split_indices":[0,12,4,0,0,12,14,0,0,2,2,0,12,0,14,5,12,1,13,0,0,0,0,0,0,0,0,0,0,0,0],"split_type":[0,0,0,0,0,0,0,0,0,0,0,0,0,0,0,0,0,0,0,0,0,0,0,0,0,0,0,0,0,0,0],"sum_hessian":[1.02E2,1.4E1,8.8E1,4E0,1E1,7.5E1,1.3E1,7E0,3E0,4.1E1,3.4E1,3E0,1E1,2E0,5E0,1.1E1,3E1,1.1E1,2.3E1,4E0,6E0,3E0,2E0,9E0,2E0,2.8E1,2E0,7E0,4E0,2.1E1,2E0],"tree_param":{"num_deleted":"0","num_feature":"15","num_nodes":"31","size_leaf_vector":"1"}},{"base_weights":[-7.31266E6,1.4221769E6,-3.8555128E6,-4.784077E6,7.882258E7,-1.3847375E7,1.2443401E7,2.281278E6,6.973E5,-1.0775034E7,-1.4954969E6,3.385216E7,3.7306708E6,-1.1627365E5,-5.958318E5,7.8051325E5,3.2670975E5,2.1454392E5,-7.486403E5],"categories":[],"categories_nodes":[],"categories_segments":[],"categories_sizes":[],"default_left":[0,0,0,0,0,0,0,0,0,0,0,0,0,0,0,0,0,0,0],"id":49,"left_children":[1,3,-1,5,7,9,11,-1,-1,13,-1,15,17,-1,-1,-1,-1,-1,-1],"loss_changes":[1.8009293E17,5.177631E16,0E0,1.5786086E16,8.4161473E15,1.1548832E16,6.4022157E15,0E0,0E0,5.8650613E15,0E0,2.6872215E14,7.88943E15,0E0,0E0,0E0,0E0,0E0,0E0],"parents":[2147483647,0,0,1,1,3,3,4,4,5,5,6,6,9,9,11,11,12,12],"right_children":[2,4,-1,6,8,10,12,-1,-1,14,-1,16,18,-1,-1,-1,-1,-1,-1],"split_conditions":[5E-1,1.2164686E9,-3.8555128E6,1.103873E9,2.1E1,5E-1,1.33E1,2.281278E6,6.973E5,8.87E1,-1.4954969E6,2.025E3,2E-1,-1.1627365E5,-5.958318E5,7.8051325E5,3.2670975E5,2.1454392E5,-7.486403E5],"split_indices":[9,14,0,14,0,11,6,0,0,5,0,1,9,0,0,0,0,0,0],"split_type":[0,0,0,0,0,0,0,0,0,0,0,0,0,0,0,0,0,0,0],"sum_hessian":[1.1E2,1.06E2,4E0,9.9E1,7E0,6.5E1,3.4E1,3E0,4E0,6.3E1,2E0,9E0,2.5E1,5.1E1,1.2E1,6E0,3E0,2.2E1,3E0],"tree_param":{"num_deleted":"0","num_feature":"15","num_nodes":"19","size_leaf_vector":"1"}},{"base_weights":[7.2937744E5,6.454837E6,-3.1094345E6,-6.3363095E6,3.884341E7,-3.626427E6,-1.4755571E6,1.3111397E7,7.346378E7,-8.427157E5,-1.0843696E6,1.9066112E7,-5.0004906E5,8.821221E7,3.6453503E5,-2.8301734E5,1.8161247E5,6.3867734E4,6.5640756E5,2.0113692E6,5.1716266E5],"categories":[],"categories_nodes":[],"categories_segments":[],"categories_sizes":[],"default_left":[0,0,0,0,0,0,0,0,0,0,0,0,0,0,0,0,0,0,0,0,0],"id":50,"left_children":[1,3,-1,5,7,9,-1,11,13,15,-1,17,-1,19,-1,-1,-1,-1,-1,-1,-1],"loss_changes":[1.0116773E17,4.54034E16,0E0,1.4170383E16,2.6653193E16,1.0798502E16,0E0,4.7888853E15,8.982748E15,9.901036E15,0E0,3.606592E15,0E0,5.1041134E15,0E0,0E0,0E0,0E0,0E0,0E0,0E0],"parents":[2147483647,0,0,1,1,3,3,4,4,5,5,7,7,8,8,9,9,11,11,13,13],"right_children":[2,4,-1,6,8,10,-1,12,14,16,-1,18,-1,20,-1,-1,-1,-1,-1,-1,-1],"split_conditions":[5E-1,2.98E1,-3.1094345E6,5E-1,1.1403188E9,2E-1,-1.4755571E6,2E-1,2E-1,2.024E3,-1.0843696E6,2.024E3,-5.0004906E5,2.1E1,3.6453503E5,-2.8301734E5,1.8161247E5,6.3867734E4,6.5640756E5,2.0113692E6,5.1716266E5],"split_indices":[9,2,0,11,14,9,0,9,9,1,0,1,0,0,0,0,0,0,0,0,0],"split_type":[0,0,0,0,0,0,0,0,0,0,0,0,0,0,0,0,0,0,0,0,0],"sum_hessian":[1.11E2,1.08E2,3E0,7.8E1,3E1,7.6E1,2E0,1.8E1,1.2E1,7.3E1,3E0,1.6E1,2E0,9E0,3E0,3.1E1,4.2E1,8E0,8E0,7E0,2E0],"tree_param":{"num_deleted":"0","num_feature":"15","num_nodes":"21","size_leaf_vector":"1"}},{"base_weights":[-3.19793E6,5.0451665E6,-3.7440738E6,-1.3844045E7,2.164655E7,-1.0022082E6,-9.860864E6,2.6429302E7,-2.5803094E7,-5.5494005E6,-3.9834784E7,1.7916546E7,1.0510771E6,-1.093454E6,4.5997758E4,-1.9066914E5,7.3349056E5,-1.0392106E6,-4.156355E5,6.251421E5,1.7706714E5],"categories":[],"categories_nodes":[],"categories_segments":[],"categories_sizes":[],"default_left":[0,0,0,0,0,0,0,0,0,0,0,0,0,0,0,0,0,0,0,0,0],"id":51,"left_children":[1,3,-1,5,7,-1,9,11,13,15,17,19,-1,-1,-1,-1,-1,-1,-1,-1,-1],"loss_changes":[1.7689063E17,3.5421424E16,0E0,7.1620104E15,1.4298346E16,0E0,6.111282E15,1.1289979E16,4.9936736E15,7.751426E15,3.0636002E14,4.922314E15,0E0,0E0,0E0,0E0,0E0,0E0,0E0,0E0,0E0],"parents":[2147483647,0,0,1,1,3,3,4,4,6,6,7,7,8,8,9,9,10,10,11,11],"right_children":[2,4,-1,6,8,-1,10,12,14,16,18,20,-1,-1,-1,-1,-1,-1,-1,-1,-1],"split_conditions":[5E-1,1.06779085E9,-3.7440738E6,8.8508934E8,2E-1,-1.0022082E6,2E-1,1.1819674E9,3.7E1,1.1310552E9,3.4E1,7.76E1,1.0510771E6,-1.093454E6,4.5997758E4,-1.9066914E5,7.3349056E5,-1.0392106E6,-4.156355E5,6.251421E5,1.7706714E5],"split_indices":[9,12,0,12,9,0,9,12,4,14,4,5,0,0,0,0,0,0,0,0,0],"split_type":[0,0,0,0,0,0,0,0,0,0,0,0,0,0,0,0,0,0,0,0,0],"sum_hessian":[1.15E2,1.11E2,4E0,5.2E1,5.9E1,4E0,4.8E1,5.4E1,5E0,4.3E1,5E0,4.2E1,1.2E1,2E0,3E0,4E1,3E0,2E0,3E0,1.6E1,2.6E1],"tree_param":{"num_deleted":"0","num_feature":"15","num_nodes":"21","size_leaf_vector":"1"}},{"base_weights":[4.205681E6,8.047085E6,-2.709735E6,-4.1899E6,4.15268E7,-1.6670243E7,6.93668E6,2.9112494E7,8.426289E7,-3.384222E7,-3.9997272E6,-7.7248E6,1.682014E7,3.4439708E7,-3.9315794E5,2.05624E6,6.2886225E5,-3.6223347E5,-1.1408236E6,1.11704016E5,-2.992752E5,-2.4519488E5,3.8073003E5,5.0699944E5,-1.10814555E5,2.4286731E5,9.7883056E5],"categories":[],"categories_nodes":[],"categories_segments":[],"categories_sizes":[],"default_left":[0,0,0,0,0,0,0,0,0,0,0,0,0,0,0,0,0,0,0,0,0,0,0,0,0,0,0],"id":52,"left_children":[1,3,-1,5,7,9,11,13,15,17,19,21,23,25,-1,-1,-1,-1,-1,-1,-1,-1,-1,-1,-1,-1,-1],"loss_changes":[6.011793E16,4.4420596E16,0E0,1.122472E16,1.293252E16,8.132597E15,6.3608965E15,6.91246E15,2.645833E15,4.8058064E15,2.500633E15,2.4178808E15,5.0995526E15,6.5191097E15,0E0,0E0,0E0,0E0,0E0,0E0,0E0,0E0,0E0,0E0,0E0,0E0,0E0],"parents":[2147483647,0,0,1,1,3,3,4,4,5,5,6,6,7,7,8,8,9,9,10,10,11,11,12,12,13,13],"right_children":[2,4,-1,6,8,10,12,14,16,18,20,22,24,26,-1,-1,-1,-1,-1,-1,-1,-1,-1,-1,-1,-1,-1],"split_conditions":[5E-1,2.98E1,-2.709735E6,2.83E1,1.2158002E9,1.03371034E9,2.024E3,3E-1,7.81E1,9.4E0,8.46E1,1.1152326E9,1.31E1,1.1094643E9,-3.9315794E5,2.05624E6,6.2886225E5,-3.6223347E5,-1.1408236E6,1.11704016E5,-2.992752E5,-2.4519488E5,3.8073003E5,5.0699944E5,-1.10814555E5,2.4286731E5,9.7883056E5],"split_indices":[9,2,0,2,14,14,1,9,5,7,5,13,7,13,0,0,0,0,0,0,0,0,0,0,0,0,0],"split_type":[0,0,0,0,0,0,0,0,0,0,0,0,0,0,0,0,0,0,0,0,0,0,0,0,0,0,0],"sum_hessian":[1.09E2,1.07E2,2E0,7.9E1,2.8E1,3.7E1,4.2E1,2.3E1,5E0,1.5E1,2.2E1,1.7E1,2.5E1,2.1E1,2E0,3E0,2E0,1E1,5E0,1.2E1,1E1,1.5E1,2E0,1.8E1,7E0,9E0,1.2E1],"tree_param":{"num_deleted":"0","num_feature":"15","num_nodes":"27","size_leaf_vector":"1"}},{"base_weights":[5.5005035E6,1.1307157E7,-2.9659855E6,-2.10586E6,5.214309E7,-4.8437455E6,1.3956224E6,6.252737E7,2.9275508E7,-1.5477092E7,5.644861E6,4.6776584E7,2.0404652E6,1.8281814E5,3.3166544E7,-8.1001525E5,-1.9400075E5,-3.8384722E5,2.4907855E5,1.884032E5,1.0443529E6,7.6924325E5,2.3039573E5],"categories":[],"categories_nodes":[],"categories_segments":[],"categories_sizes":[],"default_left":[0,0,0,0,0,0,0,0,0,0,0,0,0,0,0,0,0,0,0,0,0,0,0],"id":53,"left_children":[1,3,-1,5,7,9,-1,11,13,15,17,19,-1,-1,21,-1,-1,-1,-1,-1,-1,-1,-1],"loss_changes":[9.8127564E16,5.762178E16,0E0,1.6083468E16,4.343522E15,8.7866264E15,0E0,5.8032524E15,4.8027237E14,5.245102E15,7.003753E15,2.3537194E15,0E0,0E0,4.739883E14,0E0,0E0,0E0,0E0,0E0,0E0,0E0,0E0],"parents":[2147483647,0,0,1,1,3,3,4,4,5,5,7,7,8,8,9,9,10,10,11,11,14,14],"right_children":[2,4,-1,6,8,10,-1,12,14,16,18,20,-1,-1,22,-1,-1,-1,-1,-1,-1,-1,-1],"split_conditions":[5E-1,1.1372191E9,-2.9659855E6,1.1819674E9,1.27E1,1.0629271E9,1.3956224E6,1.24E1,1.1186902E9,8E0,1.0071E3,7.06E1,2.0404652E6,1.8281814E5,4.9E0,-8.1001525E5,-1.9400075E5,-3.8384722E5,2.4907855E5,1.884032E5,1.0443529E6,7.6924325E5,2.3039573E5],"split_indices":[9,12,0,13,7,12,0,7,13,0,8,5,0,0,6,0,0,0,0,0,0,0,0],"split_type":[0,0,0,0,0,0,0,0,0,0,0,0,0,0,0,0,0,0,0,0,0,0,0],"sum_hessian":[1.07E2,1.04E2,3E0,7.9E1,2.5E1,7.7E1,2E0,1.6E1,9E0,3.8E1,3.9E1,1.3E1,3E0,2E0,7E0,6E0,3.2E1,8E0,3.1E1,2E0,1.1E1,5E0,2E0],"tree_param":{"num_deleted":"0","num_feature":"15","num_nodes":"23","size_leaf_vector":"1"}},{"base_weights":[1.02769925E6,6.3675375E6,-2.9214952E6,-6.7007215E6,4.6788508E7,-6.3309652E7,-2.3164898E6,2.0758886E7,5.865005E7,-1.5528306E6,-4.6194516E5,-5.0591545E6,1.3770145E6,1.0102176E7,8.45143E5,6.578519E7,3.4461503E5,-2.0107646E4,-9.0906494E5,2.833604E5,-2.7938133E4,1.5083222E6,6.2880256E5],"categories":[],"categories_nodes":[],"categories_segments":[],"categories_sizes":[],"default_left":[0,0,0,0,0,0,0,0,0,0,0,0,0,0,0,0,0,0,0,0,0,0,0],"id":54,"left_children":[1,3,-1,5,7,9,11,13,15,-1,-1,17,-1,19,-1,21,-1,-1,-1,-1,-1,-1,-1],"loss_changes":[8.969202E16,5.8419007E16,0E0,2.0701025E16,7.118775E15,1.6646112E15,1.5768163E16,1.8641186E15,4.1860598E15,0E0,0E0,1.2562934E16,0E0,3.9381938E14,0E0,2.5905267E15,0E0,0E0,0E0,0E0,0E0,0E0,0E0],"parents":[2147483647,0,0,1,1,3,3,4,4,5,5,6,6,7,7,8,8,11,11,13,13,15,15],"right_children":[2,4,-1,6,8,10,12,14,16,-1,-1,18,-1,20,-1,22,-1,-1,-1,-1,-1,-1,-1],"split_conditions":[5E-1,1.1372191E9,-2.9214952E6,8.8508934E8,2.41E1,2.36E1,1.1819674E9,1.1839123E9,2E-1,-1.5528306E6,-4.6194516E5,2E-1,1.3770145E6,3.4E1,8.45143E5,2.2E1,3.4461503E5,-2.0107646E4,-9.0906494E5,2.833604E5,-2.7938133E4,1.5083222E6,6.2880256E5],"split_indices":[9,12,0,12,3,3,13,14,9,0,0,9,0,0,0,0,0,0,0,0,0,0,0],"split_type":[0,0,0,0,0,0,0,0,0,0,0,0,0,0,0,0,0,0,0,0,0,0,0],"sum_hessian":[1.12E2,1.09E2,3E0,8.3E1,2.6E1,5E0,7.8E1,9E0,1.7E1,3E0,2E0,7.6E1,2E0,7E0,2E0,1.4E1,3E0,7E1,6E0,5E0,2E0,1E1,4E0],"tree_param":{"num_deleted":"0","num_feature":"15","num_nodes":"23","size_leaf_vector":"1"}},{"base_weights":[1.4316681E5,8.674185E6,-3.546613E6,-8.3128425E6,3.9659148E7,-4.2692028E7,-9.2928E5,2.0765814E7,6.921493E7,-6.5082956E7,-1.7400942E7,-1.0398674E7,7.9397975E6,2.8127868E7,-4.6152862E5,4.6849804E7,2.0020438E6,-1.5295382E6,-5.639339E5,-4.771986E5,-1.6712959E4,-1.3230956E5,-7.9440294E5,2.4479666E5,-3.201669E5,2.2400608E5,7.1583256E5,1.3090219E5,1.1221568E6],"categories":[],"categories_nodes":[],"categories_segments":[],"categories_sizes":[],"default_left":[0,0,0,0,0,0,0,0,0,0,0,0,0,0,0,0,0,0,0,0,0,0,0,0,0,0,0,0,0],"id":55,"left_children":[1,3,-1,5,7,9,11,13,15,17,19,21,23,25,-1,27,-1,-1,-1,-1,-1,-1,-1,-1,-1,-1,-1,-1,-1],"loss_changes":[1.650537E17,5.5069298E16,0E0,1.7221505E16,1.9223767E16,5.662985E15,4.869696E15,8.3955487E15,4.9813976E15,3.6528697E14,7.290268E14,2.8432407E15,3.2852752E15,2.323428E15,0E0,3.364192E15,0E0,0E0,0E0,0E0,0E0,0E0,0E0,0E0,0E0,0E0,0E0,0E0,0E0],"parents":[2147483647,0,0,1,1,3,3,4,4,5,5,6,6,7,7,8,8,9,9,10,10,11,11,12,12,13,13,15,15],"right_children":[2,4,-1,6,8,10,12,14,16,18,20,22,24,26,-1,28,-1,-1,-1,-1,-1,-1,-1,-1,-1,-1,-1,-1,-1],"split_conditions":[5E-1,2.92E1,-3.546613E6,1.01292294E9,1.1403188E9,8E0,2.83E1,2E-1,1.23E1,2.79E1,2.36E1,2E-1,1.48E1,2.41E1,-4.6152862E5,7.16E1,2.0020438E6,-1.5295382E6,-5.639339E5,-4.771986E5,-1.6712959E4,-1.3230956E5,-7.9440294E5,2.4479666E5,-3.201669E5,2.2400608E5,7.1583256E5,1.3090219E5,1.1221568E6],"split_indices":[9,2,0,13,14,0,2,9,7,2,3,9,7,3,0,5,0,0,0,0,0,0,0,0,0,0,0,0,0],"split_type":[0,0,0,0,0,0,0,0,0,0,0,0,0,0,0,0,0,0,0,0,0,0,0,0,0,0,0,0,0],"sum_hessian":[1.07E2,1.03E2,4E0,6.7E1,3.6E1,1.1E1,5.6E1,2.3E1,1.3E1,5E0,6E0,2.7E1,2.9E1,2E1,3E0,9E0,4E0,3E0,2E0,4E0,2E0,2.5E1,2E0,2.5E1,4E0,7E0,1.3E1,2E0,7E0],"tree_param":{"num_deleted":"0","num_feature":"15","num_nodes":"29","size_leaf_vector":"1"}},{"base_weights":[-9.288487E5,6.4577955E6,-3.4487222E6,-3.515379E6,4.3035652E7,-3.998498E7,1.5110119E6,2.571735E7,2.1175902E6,-1.3837606E6,-4.3514494E5,-1.1985507E7,1.3091042E7,8.6184956E5,1.2322508E7,-5.316595E5,-1.7676728E5,3.2883984E5,-5.850018E5,5.4310844E5,6.731472E4],"categories":[],"categories_nodes":[],"categories_segments":[],"categories_sizes":[],"default_left":[0,0,0,0,0,0,0,0,0,0,0,0,0,0,0,0,0,0,0,0,0],"id":56,"left_children":[1,3,-1,5,7,9,11,13,-1,-1,-1,15,17,-1,19,-1,-1,-1,-1,-1,-1],"loss_changes":[1.2273242E17,3.4077439E16,0E0,1.3625393E16,1.904404E16,3.2854084E15,1.0472049E16,3.4255253E15,0E0,0E0,0E0,1.1892E15,5.588721E15,0E0,1.3700073E15,0E0,0E0,0E0,0E0,0E0,0E0],"parents":[2147483647,0,0,1,1,3,3,4,4,5,5,6,6,7,7,11,11,12,12,14,14],"right_children":[2,4,-1,6,8,10,12,14,-1,-1,-1,16,18,-1,20,-1,-1,-1,-1,-1,-1],"split_conditions":[5E-1,1.1403188E9,-3.4487222E6,2.3E1,3.8E1,1.0102E3,2.024E3,2.3E1,2.1175902E6,-1.3837606E6,-4.3514494E5,1.5E1,2E-1,8.6184956E5,1.09E1,-5.316595E5,-1.7676728E5,3.2883984E5,-5.850018E5,5.4310844E5,6.731472E4],"split_indices":[9,14,0,3,4,8,1,0,0,0,0,0,9,0,7,0,0,0,0,0,0],"split_type":[0,0,0,0,0,0,0,0,0,0,0,0,0,0,0,0,0,0,0,0,0],"sum_hessian":[9.5E1,9.2E1,3E0,7.3E1,1.9E1,8E0,6.5E1,1.6E1,3E0,2E0,6E0,3E1,3.5E1,6E0,1E1,4E0,2.6E1,3.3E1,2E0,3E0,7E0],"tree_param":{"num_deleted":"0","num_feature":"15","num_nodes":"21","size_leaf_vector":"1"}},{"base_weights":[-3.375287E6,3.3456948E6,-3.7471692E6,-1.1756339E7,3.1140586E7,-6.1199564E7,-7.1531195E6,2.203506E7,7.7548456E7,-1.4944019E6,-4.554466E5,-2.8348065E6,-4.376226E7,3.3168676E7,1.3563362E7,2.3205478E6,5.860429E5,-1.7513016E5,2.601408E5,-1.1154888E6,-1.8309078E5,8.436557E5,2.8238806E5,-7.4010875E4,3.837923E5],"categories":[],"categories_nodes":[],"categories_segments":[],"categories_sizes":[],"default_left":[0,0,0,0,0,0,0,0,0,0,0,0,0,0,0,0,0,0,0,0,0,0,0,0,0],"id":57,"left_children":[1,3,-1,5,7,9,11,13,15,-1,-1,17,19,21,23,-1,-1,-1,-1,-1,-1,-1,-1,-1,-1],"loss_changes":[1.4035673E17,4.653963E16,0E0,1.5949288E16,1.4771372E16,1.4157909E15,1.0467954E16,2.7570233E15,7.738947E15,0E0,0E0,5.8363484E15,2.3994103E15,1.8083745E15,2.1107662E15,0E0,0E0,0E0,0E0,0E0,0E0,0E0,0E0,0E0,0E0],"parents":[2147483647,0,0,1,1,3,3,4,4,5,5,6,6,7,7,8,8,11,11,12,12,13,13,14,14],"right_children":[2,4,-1,6,8,10,12,14,16,-1,-1,18,20,22,24,-1,-1,-1,-1,-1,-1,-1,-1,-1,-1],"split_conditions":[5E-1,1.1021192E9,-3.7471692E6,